{
    "scenes": [
        {
            "duration": 296,
            "motion": [
                {
                    "x": -4.040494441986084,
                    "y": 0.004230804275721312
                },
                {
                    "x": -4.778907775878906,
                    "y": 0.10551367700099945
                },
                {
                    "x": -3.6334826946258545,
                    "y": 0.18545174598693848
                },
                {
                    "x": -3.061650037765503,
                    "y": 0.24172325432300568
                },
                {
                    "x": -3.61114501953125,
                    "y": 0.40154358744621277
                },
                {
                    "x": -3.720191240310669,
                    "y": 0.01155840139836073
                },
                {
                    "x": -3.786585569381714,
                    "y": 0.05387115478515625
                },
                {
                    "x": -3.375307321548462,
                    "y": 0.096771240234375
                },
                {
                    "x": -3.0792222023010254,
                    "y": 0.14555440843105316
                },
                {
                    "x": -3.606149435043335,
                    "y": 0.2058887481689453
                },
                {
                    "x": -3.2785379886627197,
                    "y": 0.004813655745238066
                },
                {
                    "x": -4.331651210784912,
                    "y": 0.02096731960773468
                },
                {
                    "x": -3.6713316440582275,
                    "y": 0.030157357454299927
                },
                {
                    "x": -3.2101569175720215,
                    "y": 0.04663436487317085
                },
                {
                    "x": -3.542818307876587,
                    "y": 0.05469703674316406
                },
                {
                    "x": -2.964043617248535,
                    "y": 0.007965653203427792
                },
                {
                    "x": -4.118782043457031,
                    "y": -0.019723473116755486
                },
                {
                    "x": -3.6912424564361572,
                    "y": -0.03721798583865166
                },
                {
                    "x": -3.1440210342407227,
                    "y": -0.044522229582071304
                },
                {
                    "x": -3.4088175296783447,
                    "y": -0.07182696461677551
                },
                {
                    "x": -2.521939277648926,
                    "y": 0.007455945014953613
                },
                {
                    "x": -3.9799301624298096,
                    "y": -0.05769862234592438
                },
                {
                    "x": -3.728583574295044,
                    "y": -0.11179511994123459
                },
                {
                    "x": -3.321080446243286,
                    "y": -0.14871565997600555
                },
                {
                    "x": -3.4271721839904785,
                    "y": -0.23384802043437958
                }
            ],
            "palette": [
                "0x363a39",
                "0x706f73",
                "0x999999",
                "0x525252",
                "0x616161",
                "0x81858b",
                "0x434544",
                "0xbfb4a3",
                "0x2b302e"
            ],
            "palette_weight": [
                0.14555469155311584,
                0.17652606964111328,
                0.06296617537736893,
                0.15496398508548737,
                0.1801697462797165,
                0.05651470273733139,
                0.13978908956050873,
                0.0117294667288661,
                0.0717860534787178
            ],
            "start_frame_num": 0
        },
        {
            "duration": 263,
            "motion": [
                {
                    "x": 0.010505023412406445,
                    "y": 0.15020321309566498
                },
                {
                    "x": -0.05568796023726463,
                    "y": 0.29641368985176086
                },
                {
                    "x": -0.21120265126228333,
                    "y": 0.4904192090034485
                },
                {
                    "x": -0.10098495334386826,
                    "y": 0.7710392475128174
                },
                {
                    "x": -0.03882073611021042,
                    "y": 1.0987763404846191
                },
                {
                    "x": 0.07439259439706802,
                    "y": 0.13788340985774994
                },
                {
                    "x": 0.13268965482711792,
                    "y": 0.2613324224948883
                },
                {
                    "x": 0.04798046126961708,
                    "y": 0.4885382652282715
                },
                {
                    "x": 0.035556185990571976,
                    "y": 0.8225240111351013
                },
                {
                    "x": 0.29323264956474304,
                    "y": 1.2195203304290771
                },
                {
                    "x": 0.14242149889469147,
                    "y": 0.16276860237121582
                },
                {
                    "x": 0.05365975946187973,
                    "y": 0.3498125672340393
                },
                {
                    "x": 0.06804505735635757,
                    "y": 0.4904824197292328
                },
                {
                    "x": 0.10960406064987183,
                    "y": 0.819015622138977
                },
                {
                    "x": 0.2485121190547943,
                    "y": 1.26607346534729
                },
                {
                    "x": -0.16513025760650635,
                    "y": 0.010283281095325947
                },
                {
                    "x": 0.007639131508767605,
                    "y": 0.30617523193359375
                },
                {
                    "x": -0.0963200107216835,
                    "y": 0.4435776174068451
                },
                {
                    "x": 0.25430795550346375,
                    "y": 0.7820846438407898
                },
                {
                    "x": 0.5048260688781738,
                    "y": 1.3718433380126953
                },
                {
                    "x": -0.32960814237594604,
                    "y": -0.0572049617767334
                },
                {
                    "x": -0.1977112740278244,
                    "y": 0.0864044651389122
                },
                {
                    "x": 0.0865790843963623,
                    "y": 0.35224029421806335
                },
                {
                    "x": 0.2919376790523529,
                    "y": 0.6837928891181946
                },
                {
                    "x": 0.5740004777908325,
                    "y": 1.0625182390213013
                }
            ],
            "palette": [
                "0x999ca1",
                "0x434745",
                "0x626769",
                "0x3a3933",
                "0x818488",
                "0x545656",
                "0x2f2a1f",
                "0x73767a",
                "0x171510"
            ],
            "palette_weight": [
                0.032289523631334305,
                0.16422325372695923,
                0.1730967015028,
                0.12424983084201813,
                0.09647204726934433,
                0.1835455298423767,
                0.046017661690711975,
                0.15912207961082458,
                0.020983368158340454
            ],
            "start_frame_num": 296
        },
        {
            "duration": 241,
            "motion": [
                {
                    "x": 0.16109445691108704,
                    "y": -0.010123456828296185
                },
                {
                    "x": 0.06102187931537628,
                    "y": -0.0022544697858393192
                },
                {
                    "x": 0.19906051456928253,
                    "y": -0.05645706504583359
                },
                {
                    "x": 0.27617159485816956,
                    "y": -0.07529134303331375
                },
                {
                    "x": 0.2912193834781647,
                    "y": -0.017423288896679878
                },
                {
                    "x": 0.30995073914527893,
                    "y": -0.08002431690692902
                },
                {
                    "x": -0.03838852420449257,
                    "y": 0.007965905591845512
                },
                {
                    "x": -0.040645256638526917,
                    "y": -0.036889322102069855
                },
                {
                    "x": 0.23069380223751068,
                    "y": -0.039337027817964554
                },
                {
                    "x": 0.02864106185734272,
                    "y": -0.2647802531719208
                },
                {
                    "x": 0.13684497773647308,
                    "y": -0.005583223421126604
                },
                {
                    "x": 0.06357395648956299,
                    "y": -0.07471375167369843
                },
                {
                    "x": 0.051731839776039124,
                    "y": -0.09110438823699951
                },
                {
                    "x": 0.10319382697343826,
                    "y": -0.16131591796875
                },
                {
                    "x": 0.1411205530166626,
                    "y": -0.2785131633281708
                },
                {
                    "x": 0.2790742814540863,
                    "y": -0.02289295569062233
                },
                {
                    "x": 0.25174301862716675,
                    "y": -0.015282846055924892
                },
                {
                    "x": 0.164737269282341,
                    "y": -0.05198487639427185
                },
                {
                    "x": 0.10944460332393646,
                    "y": -0.03772050514817238
                },
                {
                    "x": 0.03586023300886154,
                    "y": -0.337253600358963
                },
                {
                    "x": -0.022952478379011154,
                    "y": -0.03577501326799393
                },
                {
                    "x": 0.17114010453224182,
                    "y": -0.09284836798906326
                },
                {
                    "x": -0.09137417376041412,
                    "y": -0.088725246489048
                },
                {
                    "x": -0.05041075497865677,
                    "y": -0.10921715199947357
                },
                {
                    "x": -0.015729539096355438,
                    "y": -0.27662476897239685
                }
            ],
            "palette": [
                "0x5b676d",
                "0x333d3e",
                "0x7e8689",
                "0x31261b",
                "0x475557",
                "0xb2b4b8",
                "0xa18068",
                "0x564231",
                "0x786045"
            ],
            "palette_weight": [
                0.23621827363967896,
                0.170835480093956,
                0.0641932412981987,
                0.11951839178800583,
                0.16459298133850098,
                0.040836118161678314,
                0.032246656715869904,
                0.10987868905067444,
                0.06168016791343689
            ],
            "start_frame_num": 559
        },
        {
            "duration": 122,
            "motion": [
                {
                    "x": 0.166611909866333,
                    "y": 0.07419595867395401
                },
                {
                    "x": -0.939146876335144,
                    "y": 0.7021362781524658
                },
                {
                    "x": -0.3863967955112457,
                    "y": 0.6342335343360901
                },
                {
                    "x": -0.33057916164398193,
                    "y": 0.7788227796554565
                },
                {
                    "x": -0.4809395968914032,
                    "y": 1.2283761501312256
                },
                {
                    "x": -0.759751558303833,
                    "y": 0.8416983485221863
                },
                {
                    "x": -0.153549462556839,
                    "y": 0.6109753251075745
                },
                {
                    "x": 0.11925020068883896,
                    "y": 0.5052237510681152
                },
                {
                    "x": 0.3260716497898102,
                    "y": 0.7117125391960144
                },
                {
                    "x": 0.3884715437889099,
                    "y": 0.9270886182785034
                },
                {
                    "x": -0.7849777340888977,
                    "y": 0.695845901966095
                },
                {
                    "x": -0.10417438298463821,
                    "y": 0.614035427570343
                },
                {
                    "x": 0.09419224411249161,
                    "y": 0.5532464385032654
                },
                {
                    "x": 0.3857632279396057,
                    "y": 0.7432490587234497
                },
                {
                    "x": 0.44231677055358887,
                    "y": 1.0722277164459229
                },
                {
                    "x": 0.548218309879303,
                    "y": 0.49793365597724915
                },
                {
                    "x": 0.6860067248344421,
                    "y": 0.5461004376411438
                },
                {
                    "x": 1.0781095027923584,
                    "y": 0.748246967792511
                },
                {
                    "x": 1.1016314029693604,
                    "y": 0.6860556602478027
                },
                {
                    "x": 0.9219889044761658,
                    "y": 0.9926100373268127
                },
                {
                    "x": 1.2262396812438965,
                    "y": 0.37201380729675293
                },
                {
                    "x": 1.2240300178527832,
                    "y": 0.3356491029262543
                },
                {
                    "x": 1.200835943222046,
                    "y": 0.5400477647781372
                },
                {
                    "x": 1.1585772037506104,
                    "y": 0.8108965158462524
                },
                {
                    "x": 0.8083793520927429,
                    "y": 1.0586929321289063
                }
            ],
            "palette": [
                "0x454d47",
                "0x737475",
                "0x353f39",
                "0x656767",
                "0x999b9b",
                "0x29302d",
                "0x575b5a",
                "0x191916",
                "0x7f7f7f"
            ],
            "palette_weight": [
                0.15248842537403107,
                0.16902434825897217,
                0.13548097014427185,
                0.19130444526672363,
                0.027536651119589806,
                0.07306670397520065,
                0.16109932959079742,
                0.012790423817932606,
                0.07720872014760971
            ],
            "start_frame_num": 800
        },
        {
            "duration": 234,
            "motion": [
                {
                    "x": 0.4235851466655731,
                    "y": -0.3917982280254364
                },
                {
                    "x": 1.3378499746322632,
                    "y": -0.8351821303367615
                },
                {
                    "x": 0.29357844591140747,
                    "y": -0.46441662311553955
                },
                {
                    "x": 0.20783644914627075,
                    "y": -0.37938347458839417
                },
                {
                    "x": 0.17451801896095276,
                    "y": -0.399535208940506
                },
                {
                    "x": 0.06959953904151917,
                    "y": -0.22800767421722412
                },
                {
                    "x": 0.10664062201976776,
                    "y": -0.4059840142726898
                },
                {
                    "x": 0.8389327526092529,
                    "y": -0.6674883365631104
                },
                {
                    "x": 0.22695955634117126,
                    "y": -0.3213021159172058
                },
                {
                    "x": 0.16722020506858826,
                    "y": -0.3537786304950714
                },
                {
                    "x": 1.2588417530059814,
                    "y": -0.6837809085845947
                },
                {
                    "x": 0.48857882618904114,
                    "y": -0.5213369131088257
                },
                {
                    "x": 0.34698405861854553,
                    "y": -0.423942893743515
                },
                {
                    "x": 0.11403963714838028,
                    "y": -0.4741579592227936
                },
                {
                    "x": -0.20154725015163422,
                    "y": -0.5389614701271057
                },
                {
                    "x": 1.6774961948394775,
                    "y": -0.8028498291969299
                },
                {
                    "x": 0.6814847588539124,
                    "y": -0.4840811789035797
                },
                {
                    "x": -0.09265190362930298,
                    "y": -0.49437493085861206
                },
                {
                    "x": 0.05410940572619438,
                    "y": -0.4705151915550232
                },
                {
                    "x": 0.09747247397899628,
                    "y": -0.4408237338066101
                },
                {
                    "x": -0.19138595461845398,
                    "y": -0.5985314249992371
                },
                {
                    "x": -0.25671252608299255,
                    "y": -0.5449672341346741
                },
                {
                    "x": 0.026676779612898827,
                    "y": -0.4531438648700714
                },
                {
                    "x": 0.27826571464538574,
                    "y": -0.33813557028770447
                },
                {
                    "x": -0.12254098057746887,
                    "y": -0.5697777271270752
                }
            ],
            "palette": [
                "0x414f48",
                "0xe8e4da",
                "0x696d70",
                "0xbdbdbb",
                "0x231f12",
                "0x575f5b",
                "0x9da09f",
                "0x43392c",
                "0x7c7d81"
            ],
            "palette_weight": [
                0.12648962438106537,
                0.07861261069774628,
                0.2112429291009903,
                0.09546467661857605,
                0.04833247512578964,
                0.18334726989269257,
                0.06443972885608673,
                0.05313893035054207,
                0.1389317512512207
            ],
            "start_frame_num": 922
        },
        {
            "duration": 697,
            "motion": [
                {
                    "x": 0.14894118905067444,
                    "y": 0.5899350643157959
                },
                {
                    "x": 0.11541351675987244,
                    "y": 0.570966362953186
                },
                {
                    "x": 0.061080314218997955,
                    "y": 0.5050588250160217
                },
                {
                    "x": 0.004888807889074087,
                    "y": 0.5018367171287537
                },
                {
                    "x": -0.044289663434028625,
                    "y": 0.5024310946464539
                },
                {
                    "x": 0.17217682301998138,
                    "y": 0.6279478073120117
                },
                {
                    "x": 0.2766914963722229,
                    "y": 0.5894918441772461
                },
                {
                    "x": 0.21135754883289337,
                    "y": 0.5506623387336731
                },
                {
                    "x": 0.1520506739616394,
                    "y": 0.5367047190666199
                },
                {
                    "x": 0.047549787908792496,
                    "y": 0.5273006558418274
                },
                {
                    "x": 0.5020502805709839,
                    "y": 0.7165567278862
                },
                {
                    "x": 0.12139945477247238,
                    "y": 0.7119410634040833
                },
                {
                    "x": 0.19044090807437897,
                    "y": 0.5621796250343323
                },
                {
                    "x": 0.173373281955719,
                    "y": 0.524372398853302
                },
                {
                    "x": 0.13336822390556335,
                    "y": 0.526063084602356
                },
                {
                    "x": 0.07599695026874542,
                    "y": 0.9127932190895081
                },
                {
                    "x": 0.08551016449928284,
                    "y": 0.6372073888778687
                },
                {
                    "x": 0.2857777178287506,
                    "y": 0.6624220609664917
                },
                {
                    "x": 0.09556163847446442,
                    "y": 0.6142382025718689
                },
                {
                    "x": 0.08899270743131638,
                    "y": 0.6354467272758484
                },
                {
                    "x": 0.031441718339920044,
                    "y": 0.7490018010139465
                },
                {
                    "x": -0.4022720158100128,
                    "y": 0.9164760708808899
                },
                {
                    "x": 0.13157817721366882,
                    "y": 0.6114180088043213
                },
                {
                    "x": -0.12668262422084808,
                    "y": 0.5362018942832947
                },
                {
                    "x": 0.0441349558532238,
                    "y": 0.40745073556900024
                }
            ],
            "palette": [
                "0x4d413a",
                "0x557c7f",
                "0x6b5d47",
                "0xd9cfc5",
                "0x867758",
                "0x9b8f5b",
                "0x4b646d",
                "0xbead9a",
                "0x9f8f7e"
            ],
            "palette_weight": [
                0.09134409576654434,
                0.09363211691379547,
                0.12901876866817474,
                0.04724472761154175,
                0.1708729863166809,
                0.14798739552497864,
                0.1701871156692505,
                0.07373113930225372,
                0.07598165422677994
            ],
            "start_frame_num": 1156
        },
        {
            "duration": 387,
            "motion": [
                {
                    "x": 0.3542238175868988,
                    "y": 0.06644883006811142
                },
                {
                    "x": 0.0,
                    "y": 0.0
                },
                {
                    "x": 0.43039780855178833,
                    "y": 0.0267817173153162
                },
                {
                    "x": 0.32689598202705383,
                    "y": 0.04811451956629753
                },
                {
                    "x": 0.32278552651405334,
                    "y": 0.025625264272093773
                },
                {
                    "x": -0.17681635916233063,
                    "y": 0.12129580974578857
                },
                {
                    "x": 0.0,
                    "y": 0.0
                },
                {
                    "x": 0.3129926025867462,
                    "y": 0.029595445841550827
                },
                {
                    "x": 0.3486158847808838,
                    "y": 0.049239709973335266
                },
                {
                    "x": 0.24690085649490356,
                    "y": 0.04821881651878357
                },
                {
                    "x": 0.3884672522544861,
                    "y": 0.005869791842997074
                },
                {
                    "x": 0.0,
                    "y": 0.0
                },
                {
                    "x": 0.3711073100566864,
                    "y": 0.0414462611079216
                },
                {
                    "x": 0.2493804395198822,
                    "y": 0.18287153542041779
                },
                {
                    "x": 0.029731450602412224,
                    "y": 0.10528916865587234
                },
                {
                    "x": 2.4206655025482178,
                    "y": 0.07465416193008423
                },
                {
                    "x": 0.422324538230896,
                    "y": 0.00743178790435195
                },
                {
                    "x": 0.3489026427268982,
                    "y": 0.03923524543642998
                },
                {
                    "x": 0.011091657914221287,
                    "y": 0.12944379448890686
                },
                {
                    "x": 0.1202189102768898,
                    "y": 0.08725152164697647
                },
                {
                    "x": 0.0,
                    "y": 0.0
                },
                {
                    "x": 0.36974796652793884,
                    "y": 0.01587080955505371
                },
                {
                    "x": 0.28682249784469604,
                    "y": 0.04269658029079437
                },
                {
                    "x": 0.20651839673519135,
                    "y": 0.05658978968858719
                },
                {
                    "x": 0.12458841502666473,
                    "y": 0.0629131942987442
                }
            ],
            "palette": [
                "0x4b4f55",
                "0x959395",
                "0x191814",
                "0x7a797d",
                "0xbbb7b0",
                "0x3e4546",
                "0x605f5e",
                "0x2f2b24",
                "0x313b3a"
            ],
            "palette_weight": [
                0.16950659453868866,
                0.1496538519859314,
                0.07163601368665695,
                0.11457261443138123,
                0.04822530969977379,
                0.17214292287826538,
                0.0681423619389534,
                0.06837812811136246,
                0.13774219155311584
            ],
            "start_frame_num": 1853
        },
        {
            "duration": 162,
            "motion": [
                {
                    "x": 0.0,
                    "y": 0.0
                },
                {
                    "x": -0.42718201875686646,
                    "y": -0.02773309499025345
                },
                {
                    "x": -0.7409898638725281,
                    "y": 0.0205430556088686
                },
                {
                    "x": -2.220848321914673,
                    "y": 0.8175818920135498
                },
                {
                    "x": -4.218079090118408,
                    "y": 2.364423990249634
                },
                {
                    "x": 0.0,
                    "y": 0.0
                },
                {
                    "x": -0.03884729743003845,
                    "y": 0.010775730945169926
                },
                {
                    "x": 0.24512246251106262,
                    "y": 0.020829714834690094
                },
                {
                    "x": -1.110580563545227,
                    "y": 0.8120298981666565
                },
                {
                    "x": -2.733769655227661,
                    "y": 2.576244831085205
                },
                {
                    "x": 0.0,
                    "y": 0.0
                },
                {
                    "x": -0.048350874334573746,
                    "y": 0.02057831548154354
                },
                {
                    "x": 0.6938797235488892,
                    "y": -0.1896226406097412
                },
                {
                    "x": 0.3325316607952118,
                    "y": 0.8211687803268433
                },
                {
                    "x": -0.6195040941238403,
                    "y": 2.5083014965057373
                },
                {
                    "x": 0.0,
                    "y": 0.0
                },
                {
                    "x": -0.08498751372098923,
                    "y": 0.031485773622989655
                },
                {
                    "x": 0.12980839610099792,
                    "y": 0.02738165110349655
                },
                {
                    "x": 1.0911892652511597,
                    "y": 0.7111275792121887
                },
                {
                    "x": 1.8843350410461426,
                    "y": 2.303654670715332
                },
                {
                    "x": 0.0,
                    "y": 0.0
                },
                {
                    "x": -0.7177994847297668,
                    "y": -0.41809767484664917
                },
                {
                    "x": 0.3146771788597107,
                    "y": 0.02711191400885582
                },
                {
                    "x": 2.5439062118530273,
                    "y": 0.25082582235336304
                },
                {
                    "x": 3.6806280612945557,
                    "y": 2.2832071781158447
                }
            ],
            "palette": [
                "0xa6b3bd",
                "0x42464b",
                "0x6f757b",
                "0x15100b",
                "0x5f5957",
                "0x8693a3",
                "0x2e2a26",
                "0xdfe4e3",
                "0xbfc8ce"
            ],
            "palette_weight": [
                0.15865054726600647,
                0.08217592537403107,
                0.07364540547132492,
                0.08398705720901489,
                0.2214345484972,
                0.12498928606510162,
                0.058309756219387054,
                0.03667802736163139,
                0.16012945771217346
            ],
            "start_frame_num": 2240
        },
        {
            "duration": 229,
            "motion": [
                {
                    "x": 0.0,
                    "y": 0.0
                },
                {
                    "x": -0.07003199309110641,
                    "y": -0.03914149850606918
                },
                {
                    "x": -0.39392057061195374,
                    "y": 0.002371475799009204
                },
                {
                    "x": -1.9266291856765747,
                    "y": 1.0323073863983154
                },
                {
                    "x": -3.440936803817749,
                    "y": 3.616469383239746
                },
                {
                    "x": 0.0,
                    "y": 0.0
                },
                {
                    "x": -0.031645871698856354,
                    "y": -0.004889327567070723
                },
                {
                    "x": -0.028184352442622185,
                    "y": 0.0009480976732447743
                },
                {
                    "x": -0.390976220369339,
                    "y": 1.0294805765151978
                },
                {
                    "x": -0.6736653447151184,
                    "y": 3.5655670166015625
                },
                {
                    "x": 0.0,
                    "y": 0.0
                },
                {
                    "x": 0.0,
                    "y": 0.0
                },
                {
                    "x": 0.09838744252920151,
                    "y": 0.026333453133702278
                },
                {
                    "x": 1.1080676317214966,
                    "y": 0.9573400020599365
                },
                {
                    "x": 2.0409634113311768,
                    "y": 3.5267891883850098
                },
                {
                    "x": 0.0,
                    "y": 0.0
                },
                {
                    "x": 0.1058492586016655,
                    "y": -0.004965079016983509
                },
                {
                    "x": 0.09303249418735504,
                    "y": 0.17182190716266632
                },
                {
                    "x": 2.4164583683013916,
                    "y": 0.9427789449691772
                },
                {
                    "x": 4.809693336486816,
                    "y": 3.4528331756591797
                },
                {
                    "x": 0.0,
                    "y": 0.0
                },
                {
                    "x": 0.15803274512290955,
                    "y": 0.10696089267730713
                },
                {
                    "x": 0.732460618019104,
                    "y": 0.19753466546535492
                },
                {
                    "x": 3.7075068950653076,
                    "y": 0.9370233416557312
                },
                {
                    "x": 7.280515193939209,
                    "y": 3.2846405506134033
                }
            ],
            "palette": [
                "0x676d73",
                "0xbac2ca",
                "0x191612",
                "0x53565c",
                "0x848b93",
                "0x302f2e",
                "0x3f4246",
                "0xdbe1df",
                "0xa1a9b3"
            ],
            "palette_weight": [
                0.13076560199260712,
                0.1934049278497696,
                0.053010329604148865,
                0.12490355223417282,
                0.15588563680648804,
                0.0633680522441864,
                0.0980474129319191,
                0.04514424875378609,
                0.13547025620937347
            ],
            "start_frame_num": 2402
        },
        {
            "duration": 106,
            "motion": [
                {
                    "x": 0.0,
                    "y": 0.0
                },
                {
                    "x": 4.561764717102051,
                    "y": -0.07413093745708466
                },
                {
                    "x": 3.013749122619629,
                    "y": -0.07903137058019638
                },
                {
                    "x": 0.18350303173065186,
                    "y": 0.3306979238986969
                },
                {
                    "x": -0.11567756533622742,
                    "y": -0.21673858165740967
                },
                {
                    "x": 0.0,
                    "y": 0.0
                },
                {
                    "x": -1.1765527725219727,
                    "y": 0.1278882622718811
                },
                {
                    "x": -0.4675428867340088,
                    "y": 0.03340820223093033
                },
                {
                    "x": 0.5968989729881287,
                    "y": -0.00404281634837389
                },
                {
                    "x": 0.12334823608398438,
                    "y": 0.31470152735710144
                },
                {
                    "x": 0.0,
                    "y": 0.0
                },
                {
                    "x": 0.0,
                    "y": 0.0
                },
                {
                    "x": -0.18594086170196533,
                    "y": -0.21541137993335724
                },
                {
                    "x": 0.48230406641960144,
                    "y": -0.2644204795360565
                },
                {
                    "x": 0.9200277924537659,
                    "y": 0.3825634717941284
                },
                {
                    "x": 0.0,
                    "y": 0.0
                },
                {
                    "x": 0.0,
                    "y": 0.0
                },
                {
                    "x": 0.829201340675354,
                    "y": -0.019384002313017845
                },
                {
                    "x": 1.1890560388565063,
                    "y": -0.17778868973255157
                },
                {
                    "x": 1.762259840965271,
                    "y": 0.5121118426322937
                },
                {
                    "x": 0.0,
                    "y": 0.0
                },
                {
                    "x": 0.0,
                    "y": 0.0
                },
                {
                    "x": 0.26060545444488525,
                    "y": 0.11859237402677536
                },
                {
                    "x": 0.011829223483800888,
                    "y": 0.07437729090452194
                },
                {
                    "x": 0.019432298839092255,
                    "y": 0.017035281285643578
                }
            ],
            "palette": [
                "0xa4a8ae",
                "0x56595a",
                "0x454540",
                "0x1a1610",
                "0x878b91",
                "0xe0e1df",
                "0xbfc3ca",
                "0x6a6f73",
                "0x322b1f"
            ],
            "palette_weight": [
                0.1473551094532013,
                0.12541794776916504,
                0.08705203980207443,
                0.051595721393823624,
                0.15554805099964142,
                0.03896604850888252,
                0.19582153856754303,
                0.13061556220054626,
                0.06762795895338058
            ],
            "start_frame_num": 2631
        },
        {
            "duration": 378,
            "motion": [
                {
                    "x": 0.0,
                    "y": 0.0
                },
                {
                    "x": -4.034739971160889,
                    "y": -0.037404872477054596
                },
                {
                    "x": -3.9015727043151855,
                    "y": 0.06406431645154953
                },
                {
                    "x": -3.5803208351135254,
                    "y": 0.14021392166614532
                },
                {
                    "x": -2.449625015258789,
                    "y": 0.26720985770225525
                },
                {
                    "x": 0.0,
                    "y": 0.0
                },
                {
                    "x": -3.777452230453491,
                    "y": -0.009114074520766735
                },
                {
                    "x": -3.7626376152038574,
                    "y": 0.03936968743801117
                },
                {
                    "x": -3.3171534538269043,
                    "y": 0.10595501959323883
                },
                {
                    "x": -2.2114338874816895,
                    "y": 0.16069386899471283
                },
                {
                    "x": 0.0,
                    "y": 0.0
                },
                {
                    "x": -3.6753432750701904,
                    "y": 0.016907060518860817
                },
                {
                    "x": -3.5491724014282227,
                    "y": 0.03723493218421936
                },
                {
                    "x": -3.127795457839966,
                    "y": 0.10226912051439285
                },
                {
                    "x": -2.0091872215270996,
                    "y": 0.05993693321943283
                },
                {
                    "x": 0.0,
                    "y": 0.0
                },
                {
                    "x": -3.72505784034729,
                    "y": 0.03887775167822838
                },
                {
                    "x": -3.428483247756958,
                    "y": 0.03714366629719734
                },
                {
                    "x": -2.845675230026245,
                    "y": 0.08835388720035553
                },
                {
                    "x": -1.6404989957809448,
                    "y": 0.0897221714258194
                },
                {
                    "x": 0.0,
                    "y": 0.0
                },
                {
                    "x": -4.015811920166016,
                    "y": 0.07231983542442322
                },
                {
                    "x": -3.874797821044922,
                    "y": 0.030312199145555496
                },
                {
                    "x": -3.200897455215454,
                    "y": -0.023274000734090805
                },
                {
                    "x": -1.9893128871917725,
                    "y": 0.14729005098342896
                }
            ],
            "palette": [
                "0x9ca0a9",
                "0x434a4a",
                "0x535d5c",
                "0x61706e",
                "0x27211d",
                "0xaaabb3",
                "0x718381",
                "0x8c959e",
                "0x3a352e"
            ],
            "palette_weight": [
                0.22798246145248413,
                0.06906935572624207,
                0.11971129477024078,
                0.1070762574672699,
                0.032380614429712296,
                0.18621398508548737,
                0.07854295521974564,
                0.13890495896339417,
                0.04011809825897217
            ],
            "start_frame_num": 2737
        },
        {
            "duration": 815,
            "motion": [
                {
                    "x": 0.0,
                    "y": 0.0
                },
                {
                    "x": 0.5982986092567444,
                    "y": 0.005004524253308773
                },
                {
                    "x": 0.18048031628131866,
                    "y": 0.07708906382322311
                },
                {
                    "x": -0.3210853338241577,
                    "y": 0.0675656720995903
                },
                {
                    "x": -0.6140661239624023,
                    "y": 0.6878053545951843
                },
                {
                    "x": 0.0,
                    "y": 0.0
                },
                {
                    "x": 0.01907275803387165,
                    "y": -0.00019487901590764523
                },
                {
                    "x": -0.042999908328056335,
                    "y": -0.011580477468669415
                },
                {
                    "x": -0.28581327199935913,
                    "y": 0.08890336006879807
                },
                {
                    "x": -0.22235703468322754,
                    "y": 0.6920413374900818
                },
                {
                    "x": 0.0,
                    "y": 0.0
                },
                {
                    "x": 0.0,
                    "y": 0.0
                },
                {
                    "x": 0.07555872946977615,
                    "y": 0.007762266788631678
                },
                {
                    "x": -0.007776833139359951,
                    "y": 0.1762458086013794
                },
                {
                    "x": 0.1771164834499359,
                    "y": 0.7573932409286499
                },
                {
                    "x": 0.0,
                    "y": 0.0
                },
                {
                    "x": 0.0,
                    "y": 0.0
                },
                {
                    "x": 0.2241225689649582,
                    "y": 0.007845944724977016
                },
                {
                    "x": 0.5580971837043762,
                    "y": 0.13295294344425201
                },
                {
                    "x": 1.0085558891296387,
                    "y": 0.6659244298934937
                },
                {
                    "x": 0.0,
                    "y": 0.0
                },
                {
                    "x": 0.34649842977523804,
                    "y": -0.05390826240181923
                },
                {
                    "x": 0.4203803837299347,
                    "y": 0.005672964733093977
                },
                {
                    "x": 0.6612139344215393,
                    "y": 0.12448597699403763
                },
                {
                    "x": 1.3762843608856201,
                    "y": 0.6352112889289856
                }
            ],
            "palette": [
                "0xc3c8d1",
                "0x5c6469",
                "0x302921",
                "0xa3aab6",
                "0x393f41",
                "0x6e787f",
                "0x4b5256",
                "0x858c98",
                "0x1a140e"
            ],
            "palette_weight": [
                0.1988329440355301,
                0.1030360534787178,
                0.05082947388291359,
                0.16738468408584595,
                0.09841177612543106,
                0.08840771019458771,
                0.10330932587385178,
                0.1421842873096466,
                0.04760373756289482
            ],
            "start_frame_num": 3115
        },
        {
            "duration": 1004,
            "motion": [
                {
                    "x": -0.036899298429489136,
                    "y": 0.4480298161506653
                },
                {
                    "x": -0.08112186938524246,
                    "y": 0.47112172842025757
                },
                {
                    "x": 0.01028195209801197,
                    "y": 0.4267311096191406
                },
                {
                    "x": -0.094901904463768,
                    "y": 0.35287049412727356
                },
                {
                    "x": -0.002554211299866438,
                    "y": 0.2899325489997864
                },
                {
                    "x": 0.0237564817070961,
                    "y": 0.4170091152191162
                },
                {
                    "x": -0.030114077031612396,
                    "y": 0.41225484013557434
                },
                {
                    "x": -0.06999249011278152,
                    "y": 0.3999634087085724
                },
                {
                    "x": -0.13207732141017914,
                    "y": 0.3963616192340851
                },
                {
                    "x": -0.14853806793689728,
                    "y": 0.422884464263916
                },
                {
                    "x": 0.09727787226438522,
                    "y": 0.38435664772987366
                },
                {
                    "x": 0.07454979419708252,
                    "y": 0.4175964891910553
                },
                {
                    "x": 0.02530338428914547,
                    "y": 0.38350990414619446
                },
                {
                    "x": -0.006238582078367472,
                    "y": 0.416069358587265
                },
                {
                    "x": -0.010800532065331936,
                    "y": 0.40129441022872925
                },
                {
                    "x": 0.13712339103221893,
                    "y": 0.3810155689716339
                },
                {
                    "x": 0.0744623988866806,
                    "y": 0.42395660281181335
                },
                {
                    "x": 0.04208432137966156,
                    "y": 0.42611899971961975
                },
                {
                    "x": -0.020354704931378365,
                    "y": 0.40292271971702576
                },
                {
                    "x": -0.061963219195604324,
                    "y": 0.3886863887310028
                },
                {
                    "x": -0.008440360426902771,
                    "y": 0.3955201804637909
                },
                {
                    "x": 0.050404489040374756,
                    "y": 0.3833223283290863
                },
                {
                    "x": 0.02019483968615532,
                    "y": 0.45319440960884094
                },
                {
                    "x": 0.015429418534040451,
                    "y": 0.4332321286201477
                },
                {
                    "x": -0.021937277168035507,
                    "y": 0.42996296286582947
                }
            ],
            "palette": [
                "0x819690",
                "0x425653",
                "0xe9ebee",
                "0x467369",
                "0x9daeaa",
                "0x3c3c3c",
                "0x656560",
                "0x66847a",
                "0xc3cbcb"
            ],
            "palette_weight": [
                0.1439203917980194,
                0.12077760696411133,
                0.04042888432741165,
                0.13652585446834564,
                0.09391075372695923,
                0.1347254365682602,
                0.07328639179468155,
                0.19703789055347443,
                0.05938678979873657
            ],
            "start_frame_num": 3930
        },
        {
            "duration": 162,
            "motion": [
                {
                    "x": 0.0,
                    "y": 0.0
                },
                {
                    "x": 0.5289286971092224,
                    "y": -0.015713319182395935
                },
                {
                    "x": 1.1668566465377808,
                    "y": -0.28276532888412476
                },
                {
                    "x": 1.1425968408584595,
                    "y": -0.053188618272542953
                },
                {
                    "x": 1.108124017715454,
                    "y": 0.33679357171058655
                },
                {
                    "x": 0.0,
                    "y": 0.0
                },
                {
                    "x": 0.0,
                    "y": 0.0
                },
                {
                    "x": 1.0666255950927734,
                    "y": -0.04446684941649437
                },
                {
                    "x": 0.2458740621805191,
                    "y": -0.39820244908332825
                },
                {
                    "x": 0.11272058635950089,
                    "y": 0.05086546763777733
                },
                {
                    "x": 0.0,
                    "y": 0.0
                },
                {
                    "x": 0.0,
                    "y": 0.0
                },
                {
                    "x": -0.029695754870772362,
                    "y": -0.1346319168806076
                },
                {
                    "x": 0.27962416410446167,
                    "y": -0.2663889229297638
                },
                {
                    "x": 0.21918155252933502,
                    "y": -0.1916484385728836
                },
                {
                    "x": 0.0,
                    "y": 0.0
                },
                {
                    "x": 0.0,
                    "y": 0.0
                },
                {
                    "x": -1.270198941230774,
                    "y": -0.21715760231018066
                },
                {
                    "x": -0.5635780692100525,
                    "y": -0.20484435558319092
                },
                {
                    "x": -0.8468629717826843,
                    "y": -0.2870728075504303
                },
                {
                    "x": 0.0,
                    "y": 0.0
                },
                {
                    "x": 0.0,
                    "y": 0.0
                },
                {
                    "x": -0.9373640418052673,
                    "y": -0.22442656755447388
                },
                {
                    "x": -0.8498445153236389,
                    "y": -0.1809930056333542
                },
                {
                    "x": -0.020684462040662766,
                    "y": -0.20064398646354675
                }
            ],
            "palette": [
                "0xb0bcc7",
                "0x443e36",
                "0x9ba6b9",
                "0x767c7c",
                "0x332b22",
                "0x5c5f60",
                "0x1b1711",
                "0xdee5e8",
                "0x5b543c"
            ],
            "palette_weight": [
                0.15400484204292297,
                0.1203971654176712,
                0.3126768171787262,
                0.09007415920495987,
                0.10028184950351715,
                0.07232188433408737,
                0.05834190547466278,
                0.03143754228949547,
                0.06046381965279579
            ],
            "start_frame_num": 4934
        },
        {
            "duration": 194,
            "motion": [
                {
                    "x": 0.7919948101043701,
                    "y": -0.09554537385702133
                },
                {
                    "x": 0.514244019985199,
                    "y": -0.3399839699268341
                },
                {
                    "x": 0.4389064908027649,
                    "y": -0.3073435127735138
                },
                {
                    "x": 0.46661633253097534,
                    "y": 0.3172588646411896
                },
                {
                    "x": -0.0617668442428112,
                    "y": 0.07735782116651535
                },
                {
                    "x": -0.21428550779819489,
                    "y": -0.21114210784435272
                },
                {
                    "x": -0.11448360979557037,
                    "y": -0.350742906332016
                },
                {
                    "x": -0.20894509553909302,
                    "y": 0.021840522065758705
                },
                {
                    "x": 0.014143101871013641,
                    "y": 0.05984962359070778
                },
                {
                    "x": -0.057706620544195175,
                    "y": 0.018616048619151115
                },
                {
                    "x": -0.8948013782501221,
                    "y": -0.33263570070266724
                },
                {
                    "x": -1.2422668933868408,
                    "y": -0.2659395933151245
                },
                {
                    "x": -0.3441143333911896,
                    "y": 0.17539247870445251
                },
                {
                    "x": -0.044726040214300156,
                    "y": 0.05861512944102287
                },
                {
                    "x": -0.03747313842177391,
                    "y": 0.03744686394929886
                },
                {
                    "x": -0.888541579246521,
                    "y": 0.011033443734049797
                },
                {
                    "x": -0.5342324376106262,
                    "y": 0.2010601907968521
                },
                {
                    "x": 0.30471184849739075,
                    "y": 0.249087393283844
                },
                {
                    "x": 0.374223917722702,
                    "y": 0.45026445388793945
                },
                {
                    "x": 0.5181235671043396,
                    "y": 0.30232515931129456
                },
                {
                    "x": -0.2859063744544983,
                    "y": 0.12372998893260956
                },
                {
                    "x": -0.12087931483983994,
                    "y": 0.2556692957878113
                },
                {
                    "x": 0.29923149943351746,
                    "y": 0.2524189352989197
                },
                {
                    "x": -0.034045375883579254,
                    "y": 0.06709591299295425
                },
                {
                    "x": 0.5239585638046265,
                    "y": 0.44446662068367004
                }
            ],
            "palette": [
                "0xa6b5b5",
                "0x615548",
                "0x49392d",
                "0x8d9c9c",
                "0xc6d1d4",
                "0x6a6c6c",
                "0x2a1f18",
                "0x888a4e",
                "0x7a8687"
            ],
            "palette_weight": [
                0.13467185199260712,
                0.10366298258304596,
                0.10305212438106537,
                0.1908436268568039,
                0.07829111069440842,
                0.12107231467962265,
                0.0698784738779068,
                0.048005614429712296,
                0.1505219042301178
            ],
            "start_frame_num": 5096
        },
        {
            "duration": 324,
            "motion": [
                {
                    "x": 0.0,
                    "y": 0.0
                },
                {
                    "x": 1.4097498655319214,
                    "y": -0.05171959474682808
                },
                {
                    "x": 1.116025686264038,
                    "y": -0.011458679102361202
                },
                {
                    "x": 0.7149081230163574,
                    "y": -0.2594814896583557
                },
                {
                    "x": -0.1193619966506958,
                    "y": 0.11060559004545212
                },
                {
                    "x": 0.0,
                    "y": 0.0
                },
                {
                    "x": 0.005620727315545082,
                    "y": 0.01992645300924778
                },
                {
                    "x": -0.20916764438152313,
                    "y": -0.2917948365211487
                },
                {
                    "x": 0.1254974901676178,
                    "y": -0.22321267426013947
                },
                {
                    "x": 0.07279694825410843,
                    "y": 0.06904544681310654
                },
                {
                    "x": 0.0,
                    "y": 0.0
                },
                {
                    "x": 0.0,
                    "y": 0.0
                },
                {
                    "x": -0.7470228672027588,
                    "y": -0.17982451617717743
                },
                {
                    "x": 0.3989909291267395,
                    "y": 0.0010270412312820554
                },
                {
                    "x": 0.4931606948375702,
                    "y": 0.16365934908390045
                },
                {
                    "x": 0.0,
                    "y": 0.0
                },
                {
                    "x": 0.0,
                    "y": 0.0
                },
                {
                    "x": 0.7015069723129272,
                    "y": 0.28218746185302734
                },
                {
                    "x": 0.7832537889480591,
                    "y": 0.2219916731119156
                },
                {
                    "x": 0.24868465960025787,
                    "y": 0.13482549786567688
                },
                {
                    "x": 0.0,
                    "y": 0.0
                },
                {
                    "x": 0.0,
                    "y": 0.0
                },
                {
                    "x": 0.1714659482240677,
                    "y": -0.040540724992752075
                },
                {
                    "x": 0.22572389245033264,
                    "y": -0.002712791319936514
                },
                {
                    "x": 0.5002841949462891,
                    "y": 0.12904083728790283
                }
            ],
            "palette": [
                "0x6d7578",
                "0x342f22",
                "0xbfc3ca",
                "0x484845",
                "0x8b8f95",
                "0x1d1710",
                "0xdee0de",
                "0x5a5e60",
                "0xa6aab1"
            ],
            "palette_weight": [
                0.12427662312984467,
                0.0719200074672699,
                0.18933255970478058,
                0.10239840298891068,
                0.14707647264003754,
                0.05667545273900032,
                0.04144697263836861,
                0.12889017164707184,
                0.1379833221435547
            ],
            "start_frame_num": 5290
        },
        {
            "duration": 455,
            "motion": [
                {
                    "x": -0.20091213285923004,
                    "y": 1.0834567546844482
                },
                {
                    "x": 0.05800478905439377,
                    "y": 1.2340258359909058
                },
                {
                    "x": -0.09240137785673141,
                    "y": 1.303768515586853
                },
                {
                    "x": -0.019489925354719162,
                    "y": 1.4708086252212524
                },
                {
                    "x": 0.044632840901613235,
                    "y": 1.6137069463729858
                },
                {
                    "x": -0.1148068755865097,
                    "y": 1.0569508075714111
                },
                {
                    "x": -0.12305008620023727,
                    "y": 1.1482503414154053
                },
                {
                    "x": 0.15187953412532806,
                    "y": 1.28684663772583
                },
                {
                    "x": 0.30808165669441223,
                    "y": 1.418790340423584
                },
                {
                    "x": 0.27554795145988464,
                    "y": 1.5423048734664917
                },
                {
                    "x": 0.037311241030693054,
                    "y": 0.948983371257782
                },
                {
                    "x": 0.08510543406009674,
                    "y": 1.0658516883850098
                },
                {
                    "x": 0.20565272867679596,
                    "y": 1.2422252893447876
                },
                {
                    "x": 0.3800588548183441,
                    "y": 1.3537920713424683
                },
                {
                    "x": 0.3322218954563141,
                    "y": 1.4549696445465088
                },
                {
                    "x": 0.1766558587551117,
                    "y": 1.0830879211425781
                },
                {
                    "x": 0.0933106541633606,
                    "y": 1.030806064605713
                },
                {
                    "x": 0.017734043300151825,
                    "y": 1.11899733543396
                },
                {
                    "x": 0.2229204922914505,
                    "y": 1.269943118095398
                },
                {
                    "x": -0.31970539689064026,
                    "y": 1.3576406240463257
                },
                {
                    "x": 0.1789986789226532,
                    "y": 1.1134432554244995
                },
                {
                    "x": 0.28090900182724,
                    "y": 1.1466434001922607
                },
                {
                    "x": 0.5188047885894775,
                    "y": 1.2780848741531372
                },
                {
                    "x": 0.16160458326339722,
                    "y": 1.1843774318695068
                },
                {
                    "x": 0.1495695859193802,
                    "y": 1.3996973037719727
                }
            ],
            "palette": [
                "0x505d61",
                "0xb5b1b0",
                "0x537472",
                "0xd7e2ec",
                "0x9c8868",
                "0x776643",
                "0x45372e",
                "0x5c4d34",
                "0x7d8e94"
            ],
            "palette_weight": [
                0.09590406715869904,
                0.10665295273065567,
                0.1397515833377838,
                0.07845185697078705,
                0.08250278979539871,
                0.17963391542434692,
                0.0962255671620369,
                0.1354970484972,
                0.08538022637367249
            ],
            "start_frame_num": 5614
        },
        {
            "duration": 838,
            "motion": [
                {
                    "x": 0.025743642821907997,
                    "y": -0.2305772304534912
                },
                {
                    "x": 0.1486387550830841,
                    "y": -0.23267599940299988
                },
                {
                    "x": 0.1288430094718933,
                    "y": -0.0863787978887558
                },
                {
                    "x": 0.06627371162176132,
                    "y": -0.17509956657886505
                },
                {
                    "x": 0.22783620655536652,
                    "y": -0.23984295129776
                },
                {
                    "x": 0.039284393191337585,
                    "y": -0.2616378664970398
                },
                {
                    "x": 0.14090770483016968,
                    "y": -0.18822720646858215
                },
                {
                    "x": 0.09465578943490982,
                    "y": -0.08061735332012177
                },
                {
                    "x": -0.2037162035703659,
                    "y": -0.060152750462293625
                },
                {
                    "x": -0.22623126208782196,
                    "y": -0.11455272138118744
                },
                {
                    "x": -0.0919223353266716,
                    "y": -0.2465626299381256
                },
                {
                    "x": -0.008374543860554695,
                    "y": -0.13736611604690552
                },
                {
                    "x": 0.016275333240628242,
                    "y": -0.06338262557983398
                },
                {
                    "x": 0.04583318531513214,
                    "y": -0.05310249328613281
                },
                {
                    "x": -0.049035873264074326,
                    "y": -0.14385248720645905
                },
                {
                    "x": -0.06935449689626694,
                    "y": -0.28644734621047974
                },
                {
                    "x": -0.052407924085855484,
                    "y": -0.11792474240064621
                },
                {
                    "x": -0.043308332562446594,
                    "y": -0.06062161177396774
                },
                {
                    "x": -0.04811360314488411,
                    "y": -0.03315280005335808
                },
                {
                    "x": -0.07400373369455338,
                    "y": -0.030553121119737625
                },
                {
                    "x": -0.05856260657310486,
                    "y": -0.3037053346633911
                },
                {
                    "x": 0.034490328282117844,
                    "y": -0.2648553252220154
                },
                {
                    "x": -0.09031236171722412,
                    "y": -0.20288622379302979
                },
                {
                    "x": -0.06939084827899933,
                    "y": -0.08522840589284897
                },
                {
                    "x": -0.15414516627788544,
                    "y": -0.07669246941804886
                }
            ],
            "palette": [
                "0x616c70",
                "0x95a0a0",
                "0x443326",
                "0x5b4d40",
                "0xbbc6ca",
                "0x929252",
                "0x7c8889",
                "0x271d17",
                "0x7c694c"
            ],
            "palette_weight": [
                0.12594307959079742,
                0.20796360075473785,
                0.09148341417312622,
                0.09795095771551132,
                0.12221900373697281,
                0.043365269899368286,
                0.18983624875545502,
                0.053969480097293854,
                0.06726894527673721
            ],
            "start_frame_num": 6069
        },
        {
            "duration": 389,
            "motion": [
                {
                    "x": -0.059149932116270065,
                    "y": 0.08881846815347672
                },
                {
                    "x": 0.2115786075592041,
                    "y": -0.021103203296661377
                },
                {
                    "x": 0.30817994475364685,
                    "y": 0.08750182390213013
                },
                {
                    "x": 0.46594399213790894,
                    "y": 0.19796773791313171
                },
                {
                    "x": -0.10545032471418381,
                    "y": 0.07321780174970627
                },
                {
                    "x": -0.01221408136188984,
                    "y": 0.04249705374240875
                },
                {
                    "x": 0.12811605632305145,
                    "y": -0.008627192117273808
                },
                {
                    "x": 0.3318016231060028,
                    "y": 0.09719916433095932
                },
                {
                    "x": 0.41798993945121765,
                    "y": 0.11556002497673035
                },
                {
                    "x": 0.3113650977611542,
                    "y": 0.155705064535141
                },
                {
                    "x": 0.00991725642234087,
                    "y": 0.0025064153596758842
                },
                {
                    "x": 0.1876731514930725,
                    "y": -0.011548453010618687
                },
                {
                    "x": 0.2890377342700958,
                    "y": -0.002931400667876005
                },
                {
                    "x": 0.2696063816547394,
                    "y": 0.15210801362991333
                },
                {
                    "x": 0.14372655749320984,
                    "y": 0.18483230471611023
                },
                {
                    "x": 0.14663727581501007,
                    "y": 0.014302534982562065
                },
                {
                    "x": 0.19707471132278442,
                    "y": -0.00016551603039260954
                },
                {
                    "x": 0.2817286550998688,
                    "y": 0.011353835463523865
                },
                {
                    "x": 0.29735633730888367,
                    "y": -0.0008348908158950508
                },
                {
                    "x": 0.16138117015361786,
                    "y": 0.20352841913700104
                },
                {
                    "x": -0.02812071330845356,
                    "y": 0.0055380938574671745
                },
                {
                    "x": 0.05531386658549309,
                    "y": -0.002617340534925461
                },
                {
                    "x": 0.18299806118011475,
                    "y": -0.0021407324820756912
                },
                {
                    "x": -0.002210811246186495,
                    "y": -0.02076968178153038
                },
                {
                    "x": -0.043326493352651596,
                    "y": 0.03537842258810997
                }
            ],
            "palette": [
                "0xb4bbc3",
                "0x44535a",
                "0x8c949b",
                "0x687176",
                "0x31221a",
                "0xa0a7b3",
                "0x516067",
                "0x434343",
                "0xc7ced4"
            ],
            "palette_weight": [
                0.10667973756790161,
                0.18482081592082977,
                0.06106395646929741,
                0.08322080969810486,
                0.05321930721402168,
                0.12709511816501617,
                0.20154963433742523,
                0.07432056218385696,
                0.1080300509929657
            ],
            "start_frame_num": 6907
        },
        {
            "duration": 332,
            "motion": [
                {
                    "x": 0.015679288655519485,
                    "y": -0.02198578603565693
                },
                {
                    "x": -0.15966063737869263,
                    "y": -0.011161968111991882
                },
                {
                    "x": -0.20604410767555237,
                    "y": 0.6970593929290771
                },
                {
                    "x": -1.1371276378631592,
                    "y": 0.8744611740112305
                },
                {
                    "x": -1.5089820623397827,
                    "y": 1.5936403274536133
                },
                {
                    "x": -0.03280522674322128,
                    "y": -0.00020437884086277336
                },
                {
                    "x": -0.04597688466310501,
                    "y": -0.020528266206383705
                },
                {
                    "x": 0.15574781596660614,
                    "y": 0.6086812019348145
                },
                {
                    "x": -0.2944699227809906,
                    "y": 0.8685317635536194
                },
                {
                    "x": -0.6748852729797363,
                    "y": 1.5507158041000366
                },
                {
                    "x": 0.3059271275997162,
                    "y": -0.04640354588627815
                },
                {
                    "x": 0.3960546851158142,
                    "y": 0.05267142131924629
                },
                {
                    "x": 0.10198403894901276,
                    "y": 0.48796582221984863
                },
                {
                    "x": -0.09907222539186478,
                    "y": 0.7363322973251343
                },
                {
                    "x": -0.4664868414402008,
                    "y": 1.4595041275024414
                },
                {
                    "x": 0.18945631384849548,
                    "y": 0.012465892359614372
                },
                {
                    "x": 0.41757932305336,
                    "y": 0.09062559902667999
                },
                {
                    "x": 0.5188094973564148,
                    "y": 0.2447240650653839
                },
                {
                    "x": 0.11324755847454071,
                    "y": 0.8209599852561951
                },
                {
                    "x": 0.5776771306991577,
                    "y": 1.503049612045288
                },
                {
                    "x": 0.5016184449195862,
                    "y": 0.043464988470077515
                },
                {
                    "x": 0.6597484946250916,
                    "y": 0.0815926045179367
                },
                {
                    "x": 0.5510362386703491,
                    "y": 0.15530428290367126
                },
                {
                    "x": 1.0459827184677124,
                    "y": 0.7453950643539429
                },
                {
                    "x": 1.6932543516159058,
                    "y": 1.5461440086364746
                }
            ],
            "palette": [
                "0x747c7f",
                "0xd0d9e3",
                "0x4b3d28",
                "0x81939e",
                "0x2a2014",
                "0x808542",
                "0x6a5e37",
                "0x646262",
                "0xbbc1cc"
            ],
            "palette_weight": [
                0.1577717810869217,
                0.10710841417312622,
                0.1254286766052246,
                0.17064793407917023,
                0.0692247524857521,
                0.06774048507213593,
                0.12254586815834045,
                0.1023448184132576,
                0.07718728482723236
            ],
            "start_frame_num": 7296
        },
        {
            "duration": 341,
            "motion": [
                {
                    "x": 0.12924285233020782,
                    "y": -0.10548438131809235
                },
                {
                    "x": -0.08032254129648209,
                    "y": -0.04842902719974518
                },
                {
                    "x": -0.34432825446128845,
                    "y": 0.31616833806037903
                },
                {
                    "x": -0.5755358338356018,
                    "y": 0.6530478000640869
                },
                {
                    "x": -0.7604614496231079,
                    "y": 1.0566617250442505
                },
                {
                    "x": 0.15061044692993164,
                    "y": 0.016491835936903954
                },
                {
                    "x": 0.16925828158855438,
                    "y": 0.05647309869527817
                },
                {
                    "x": 0.01244638953357935,
                    "y": 0.2461635321378708
                },
                {
                    "x": -0.10830675065517426,
                    "y": 0.6663743257522583
                },
                {
                    "x": -0.6353467702865601,
                    "y": 1.0205031633377075
                },
                {
                    "x": 0.012362898327410221,
                    "y": 0.03273715078830719
                },
                {
                    "x": 0.1061650961637497,
                    "y": 0.07414411753416061
                },
                {
                    "x": 0.13060511648654938,
                    "y": 0.21408185362815857
                },
                {
                    "x": -0.03204828500747681,
                    "y": 0.6003419160842896
                },
                {
                    "x": -0.041378237307071686,
                    "y": 0.9994946122169495
                },
                {
                    "x": 0.055688660591840744,
                    "y": 0.05064401030540466
                },
                {
                    "x": 0.029537098482251167,
                    "y": 0.0830358937382698
                },
                {
                    "x": -0.08722962439060211,
                    "y": 0.1483890861272812
                },
                {
                    "x": 0.08461052924394608,
                    "y": 0.7056576609611511
                },
                {
                    "x": 0.21668937802314758,
                    "y": 1.010026454925537
                },
                {
                    "x": 0.5555933713912964,
                    "y": 0.1176755428314209
                },
                {
                    "x": 0.5523554086685181,
                    "y": 0.08869433403015137
                },
                {
                    "x": 0.20606735348701477,
                    "y": 0.13100963830947876
                },
                {
                    "x": 0.8367592692375183,
                    "y": 0.5667313933372498
                },
                {
                    "x": 1.0567477941513062,
                    "y": 0.9893679618835449
                }
            ],
            "palette": [
                "0x3a281f",
                "0x889598",
                "0xc5c7d1",
                "0x465659",
                "0x6d7b7f",
                "0x846045",
                "0x5b412f",
                "0xb18b6c",
                "0x57676a"
            ],
            "palette_weight": [
                0.03535986691713333,
                0.07673182338476181,
                0.19059713184833527,
                0.13404493033885956,
                0.20274990797042847,
                0.06435935199260712,
                0.06749935448169708,
                0.04905049875378609,
                0.17960712313652039
            ],
            "start_frame_num": 7628
        },
        {
            "duration": 205,
            "motion": [
                {
                    "x": -2.1790828704833984,
                    "y": -0.022211754694581032
                },
                {
                    "x": -3.784515857696533,
                    "y": -0.021336695179343224
                },
                {
                    "x": -4.587131023406982,
                    "y": -0.0642259269952774
                },
                {
                    "x": -5.199013710021973,
                    "y": -0.23006972670555115
                },
                {
                    "x": -5.73115873336792,
                    "y": -0.15465496480464935
                },
                {
                    "x": -1.8443087339401245,
                    "y": -0.002697161864489317
                },
                {
                    "x": -2.807887315750122,
                    "y": 0.017315275967121124
                },
                {
                    "x": -4.006881237030029,
                    "y": -0.04613299295306206
                },
                {
                    "x": -4.597167491912842,
                    "y": -0.244902104139328
                },
                {
                    "x": -5.120078086853027,
                    "y": -0.18014518916606903
                },
                {
                    "x": -1.4351892471313477,
                    "y": -0.015514456667006016
                },
                {
                    "x": -2.027714729309082,
                    "y": -0.018655018880963326
                },
                {
                    "x": -3.2306411266326904,
                    "y": 0.008844270370900631
                },
                {
                    "x": -3.918182134628296,
                    "y": 0.018502162769436836
                },
                {
                    "x": -4.398891448974609,
                    "y": -0.09022706001996994
                },
                {
                    "x": -1.0760085582733154,
                    "y": -0.002775001572445035
                },
                {
                    "x": -1.6667835712432861,
                    "y": 0.10384568572044373
                },
                {
                    "x": -2.679370403289795,
                    "y": 0.170930415391922
                },
                {
                    "x": -3.0936567783355713,
                    "y": 0.09898683428764343
                },
                {
                    "x": -3.678148031234741,
                    "y": -0.04831914231181145
                },
                {
                    "x": 0.0,
                    "y": 0.0
                },
                {
                    "x": -1.153025507926941,
                    "y": 0.30396556854248047
                },
                {
                    "x": -1.6531041860580444,
                    "y": 0.1670977771282196
                },
                {
                    "x": -2.4071743488311768,
                    "y": -0.03207765519618988
                },
                {
                    "x": -3.223766565322876,
                    "y": -0.14069415628910065
                }
            ],
            "palette": [
                "0x83684b",
                "0xc5dbf5",
                "0x4a2914",
                "0xa28d75",
                "0x533921",
                "0x93795d",
                "0x2d221a",
                "0x74573a",
                "0x65472c"
            ],
            "palette_weight": [
                0.13373413681983948,
                0.1782943308353424,
                0.08957583457231522,
                0.05021326243877411,
                0.11933084577322006,
                0.11798589676618576,
                0.058947402983903885,
                0.12603417038917542,
                0.12588413059711456
            ],
            "start_frame_num": 7969
        },
        {
            "duration": 294,
            "motion": [
                {
                    "x": -0.2959917485713959,
                    "y": 0.11996573954820633
                },
                {
                    "x": -0.2554682493209839,
                    "y": 0.46313539147377014
                },
                {
                    "x": -0.5650590658187866,
                    "y": 0.8252802491188049
                },
                {
                    "x": -0.7781933546066284,
                    "y": 1.1771714687347412
                },
                {
                    "x": -1.2971062660217285,
                    "y": 1.97523832321167
                },
                {
                    "x": -0.2233578860759735,
                    "y": 0.06685319542884827
                },
                {
                    "x": -0.02305714227259159,
                    "y": 0.519357442855835
                },
                {
                    "x": -0.2654474675655365,
                    "y": 0.7265914678573608
                },
                {
                    "x": -0.33172687888145447,
                    "y": 1.2151833772659302
                },
                {
                    "x": -0.3075016736984253,
                    "y": 1.903235912322998
                },
                {
                    "x": 0.11168257147073746,
                    "y": 0.05848121643066406
                },
                {
                    "x": -0.238900288939476,
                    "y": 0.48128196597099304
                },
                {
                    "x": -0.29365259408950806,
                    "y": 0.7106940746307373
                },
                {
                    "x": -0.34986650943756104,
                    "y": 1.351663589477539
                },
                {
                    "x": -0.3185853958129883,
                    "y": 1.9167540073394775
                },
                {
                    "x": 0.5110905170440674,
                    "y": 0.03272317349910736
                },
                {
                    "x": -1.1887987852096558,
                    "y": 0.3100641071796417
                },
                {
                    "x": -1.072095513343811,
                    "y": 0.7304033041000366
                },
                {
                    "x": -0.79850834608078,
                    "y": 1.2205530405044556
                },
                {
                    "x": -0.931141197681427,
                    "y": 1.8607414960861206
                },
                {
                    "x": -0.007949456572532654,
                    "y": 0.0017255324637517333
                },
                {
                    "x": -0.0662684440612793,
                    "y": 0.2190258800983429
                },
                {
                    "x": 0.2839268147945404,
                    "y": 0.7345972657203674
                },
                {
                    "x": 0.657943844795227,
                    "y": 1.180936336517334
                },
                {
                    "x": 0.6739702224731445,
                    "y": 1.7152148485183716
                }
            ],
            "palette": [
                "0x626b67",
                "0xe4e3e1",
                "0x3a4341",
                "0xafb2b7",
                "0x7e8285",
                "0x4b5654",
                "0x2d221a",
                "0x94989b",
                "0xc9ccd1"
            ],
            "palette_weight": [
                0.15992048382759094,
                0.0749582052230835,
                0.12662358582019806,
                0.06744041293859482,
                0.189327210187912,
                0.17743699252605438,
                0.043343834578990936,
                0.10314857959747314,
                0.05780071020126343
            ],
            "start_frame_num": 8174
        },
        {
            "duration": 236,
            "motion": [
                {
                    "x": 0.21492962539196014,
                    "y": -0.007731578778475523
                },
                {
                    "x": -0.1457522213459015,
                    "y": -0.08294571936130524
                },
                {
                    "x": -0.6236069202423096,
                    "y": 0.22893694043159485
                },
                {
                    "x": -1.1970014572143555,
                    "y": 0.9261106252670288
                },
                {
                    "x": -1.1492412090301514,
                    "y": 1.5912483930587769
                },
                {
                    "x": 0.6906645894050598,
                    "y": -0.04644911363720894
                },
                {
                    "x": -0.021898353472352028,
                    "y": 0.073063425719738
                },
                {
                    "x": -0.43678203225135803,
                    "y": 0.4556136429309845
                },
                {
                    "x": -0.963645339012146,
                    "y": 0.8259314298629761
                },
                {
                    "x": -0.6362636089324951,
                    "y": 1.5312016010284424
                },
                {
                    "x": 0.425431489944458,
                    "y": -0.05402359366416931
                },
                {
                    "x": 0.13131646811962128,
                    "y": 0.06605164706707001
                },
                {
                    "x": 0.09736752510070801,
                    "y": 0.44429242610931396
                },
                {
                    "x": 0.12873190641403198,
                    "y": 0.9923047423362732
                },
                {
                    "x": -0.12143342196941376,
                    "y": 1.7135982513427734
                },
                {
                    "x": -0.25329670310020447,
                    "y": -0.06606195122003555
                },
                {
                    "x": -0.12863624095916748,
                    "y": 0.034427810460329056
                },
                {
                    "x": 0.22750921547412872,
                    "y": 0.34128305315971375
                },
                {
                    "x": 0.3562586307525635,
                    "y": 0.884240984916687
                },
                {
                    "x": 0.435082346200943,
                    "y": 1.44890296459198
                },
                {
                    "x": -0.695393979549408,
                    "y": -0.048035629093647
                },
                {
                    "x": 0.5461786389350891,
                    "y": 0.09960068762302399
                },
                {
                    "x": 0.5702958106994629,
                    "y": 0.4779413044452667
                },
                {
                    "x": 0.8740500807762146,
                    "y": 0.9286925792694092
                },
                {
                    "x": 0.8224232792854309,
                    "y": 1.3164395093917847
                }
            ],
            "palette": [
                "0x3b2f21",
                "0xdce2e6",
                "0x767c82",
                "0x504532",
                "0x535f27",
                "0x8f9ba6",
                "0x6d5e53",
                "0x221911",
                "0x717f3c"
            ],
            "palette_weight": [
                0.12646283209323883,
                0.13535237312316895,
                0.11747685074806213,
                0.13049232959747314,
                0.04953274875879288,
                0.19077932834625244,
                0.11611046642065048,
                0.08367091417312622,
                0.05012217164039612
            ],
            "start_frame_num": 8468
        },
        {
            "duration": 419,
            "motion": [
                {
                    "x": 0.7128189206123352,
                    "y": -0.030704591423273087
                },
                {
                    "x": 0.5367270112037659,
                    "y": -0.05280342698097229
                },
                {
                    "x": 0.4258076548576355,
                    "y": -0.06612693518400192
                },
                {
                    "x": 0.3775833249092102,
                    "y": -0.123996801674366
                },
                {
                    "x": 0.3613485097885132,
                    "y": -0.2847450375556946
                },
                {
                    "x": 0.6950308084487915,
                    "y": 0.038801658898591995
                },
                {
                    "x": 0.5454013347625732,
                    "y": -0.06345439702272415
                },
                {
                    "x": 0.4041822552680969,
                    "y": -0.055588506162166595
                },
                {
                    "x": 0.26698702573776245,
                    "y": -0.07149795442819595
                },
                {
                    "x": 0.22637587785720825,
                    "y": -0.21101389825344086
                },
                {
                    "x": 0.5872638821601868,
                    "y": 0.07637487351894379
                },
                {
                    "x": 0.7216893434524536,
                    "y": 0.07180128246545792
                },
                {
                    "x": 0.5066279172897339,
                    "y": -0.010668517090380192
                },
                {
                    "x": 0.288839191198349,
                    "y": -0.04481402784585953
                },
                {
                    "x": 0.05453033000230789,
                    "y": -0.1370493471622467
                },
                {
                    "x": 0.49526453018188477,
                    "y": 0.08958491683006287
                },
                {
                    "x": 0.43621376156806946,
                    "y": -0.00048436495126225054
                },
                {
                    "x": 0.2936290502548218,
                    "y": 0.019236678257584572
                },
                {
                    "x": 0.13764218986034393,
                    "y": -0.07542183250188828
                },
                {
                    "x": -0.17031875252723694,
                    "y": -0.16329216957092285
                },
                {
                    "x": 0.40581610798835754,
                    "y": 0.023629842326045036
                },
                {
                    "x": 0.04945443570613861,
                    "y": 0.03259940445423126
                },
                {
                    "x": -0.08614742755889893,
                    "y": -0.10171196609735489
                },
                {
                    "x": -0.4903166890144348,
                    "y": -0.2275293469429016
                },
                {
                    "x": -0.47723588347435,
                    "y": -0.41131097078323364
                }
            ],
            "palette": [
                "0x758589",
                "0x4a433e",
                "0xb3b4b6",
                "0x322b24",
                "0x6b5e3e",
                "0x647677",
                "0xcbd2da",
                "0x8e9899",
                "0x565c62"
            ],
            "palette_weight": [
                0.2016032189130783,
                0.11346343159675598,
                0.1130669116973877,
                0.09267832338809967,
                0.0515635721385479,
                0.12442129850387573,
                0.10067301243543625,
                0.11910579353570938,
                0.08342442661523819
            ],
            "start_frame_num": 8704
        },
        {
            "duration": 278,
            "motion": [
                {
                    "x": -0.16187381744384766,
                    "y": 0.05485367774963379
                },
                {
                    "x": -0.15940818190574646,
                    "y": 0.0867355540394783
                },
                {
                    "x": -0.08460510522127151,
                    "y": 0.2821471691131592
                },
                {
                    "x": -0.27809882164001465,
                    "y": 0.6974018216133118
                },
                {
                    "x": -0.7717577815055847,
                    "y": 1.2313041687011719
                },
                {
                    "x": 0.13170674443244934,
                    "y": 0.03166148066520691
                },
                {
                    "x": 0.16553401947021484,
                    "y": 0.08118713647127151
                },
                {
                    "x": -0.10016744583845139,
                    "y": 0.2937716543674469
                },
                {
                    "x": -0.509412944316864,
                    "y": 0.7404265403747559
                },
                {
                    "x": -0.4324871599674225,
                    "y": 1.5461533069610596
                },
                {
                    "x": 0.05487913265824318,
                    "y": 0.02987801283597946
                },
                {
                    "x": 0.23776547610759735,
                    "y": 0.061141714453697205
                },
                {
                    "x": 0.13508157432079315,
                    "y": 0.46817561984062195
                },
                {
                    "x": 0.03787669166922569,
                    "y": 0.9002877473831177
                },
                {
                    "x": -0.07066243886947632,
                    "y": 1.5120384693145752
