{
    "scenes": [
        {
            "duration": 296,
            "motion": [
                {
                    "x": -4.040494441986084,
                    "y": 0.004230804275721312
                },
                {
                    "x": -4.778907775878906,
                    "y": 0.10551367700099945
                },
                {
                    "x": -3.5476737022399902,
                    "y": 0.1813572496175766
                },
                {
                    "x": -3.0264477729797363,
                    "y": 0.2391069382429123
                },
                {
                    "x": -3.5175604820251465,
                    "y": 0.3915611207485199
                },
                {
                    "x": -3.720191240310669,
                    "y": 0.01155840139836073
                },
                {
                    "x": -3.6686995029449463,
                    "y": 0.05368804931640625
                },
                {
                    "x": -3.3313486576080322,
                    "y": 0.09520958364009857
                },
                {
                    "x": -3.0500504970550537,
                    "y": 0.1442461460828781
                },
                {
                    "x": -3.5370898246765137,
                    "y": 0.202301025390625
                },
                {
                    "x": -3.2785379886627197,
                    "y": 0.004813655745238066
                },
                {
                    "x": -4.331651210784912,
                    "y": 0.02096731960773468
                },
                {
                    "x": -3.6308107376098633,
                    "y": 0.030077172443270683
                },
                {
                    "x": -3.1882565021514893,
                    "y": 0.04667438939213753
                },
                {
                    "x": -3.542818307876587,
                    "y": 0.05469703674316406
                },
                {
                    "x": -2.964043617248535,
                    "y": 0.007965653203427792
                },
                {
                    "x": -4.118782043457031,
                    "y": -0.019723473116755486
                },
                {
                    "x": -3.6643290519714355,
                    "y": -0.03686532750725746
                },
                {
                    "x": -3.130263328552246,
                    "y": -0.04416484758257866
                },
                {
                    "x": -3.4088175296783447,
                    "y": -0.07182696461677551
                },
                {
                    "x": -2.521939277648926,
                    "y": 0.007455945014953613
                },
                {
                    "x": -3.9799301624298096,
                    "y": -0.05769862234592438
                },
                {
                    "x": -3.728583574295044,
                    "y": -0.11179511994123459
                },
                {
                    "x": -3.321080446243286,
                    "y": -0.14871565997600555
                },
                {
                    "x": -3.3965065479278564,
                    "y": -0.2314974069595337
                }
            ],
            "palette": [
                "0x323533",
                "0x636466",
                "0xc1b9a7",
                "0x444746",
                "0x929394",
                "0x575757"
            ],
            "palette_weight": [
                0.2505626380443573,
                0.21147333085536957,
                0.04269011318683624,
                0.20498435199260712,
                0.09672924876213074,
                0.19356031715869904
            ],
            "start_frame_num": 0
        },
        {
            "duration": 261,
            "motion": [
                {
                    "x": 0.010505023412406445,
                    "y": 0.15020321309566498
                },
                {
                    "x": -0.05568796023726463,
                    "y": 0.29641368985176086
                },
                {
                    "x": -0.21120265126228333,
                    "y": 0.4904192090034485
                },
                {
                    "x": -0.10098495334386826,
                    "y": 0.7710392475128174
                },
                {
                    "x": -0.03882073611021042,
                    "y": 1.0987763404846191
                },
                {
                    "x": 0.07439259439706802,
                    "y": 0.13788340985774994
                },
                {
                    "x": 0.13268965482711792,
                    "y": 0.2613324224948883
                },
                {
                    "x": 0.04798046126961708,
                    "y": 0.4885382652282715
                },
                {
                    "x": 0.035556185990571976,
                    "y": 0.8225240111351013
                },
                {
                    "x": 0.29323264956474304,
                    "y": 1.2195203304290771
                },
                {
                    "x": 0.14242149889469147,
                    "y": 0.16276860237121582
                },
                {
                    "x": 0.05365975946187973,
                    "y": 0.3498125672340393
                },
                {
                    "x": 0.06804505735635757,
                    "y": 0.4904824197292328
                },
                {
                    "x": 0.10960406064987183,
                    "y": 0.819015622138977
                },
                {
                    "x": 0.2485121190547943,
                    "y": 1.26607346534729
                },
                {
                    "x": -0.16513025760650635,
                    "y": 0.010283281095325947
                },
                {
                    "x": 0.007639131508767605,
                    "y": 0.30617523193359375
                },
                {
                    "x": -0.0963200107216835,
                    "y": 0.4435776174068451
                },
                {
                    "x": 0.25430795550346375,
                    "y": 0.7820846438407898
                },
                {
                    "x": 0.5048260688781738,
                    "y": 1.3718433380126953
                },
                {
                    "x": -0.32960814237594604,
                    "y": -0.0572049617767334
                },
                {
                    "x": -0.1977112740278244,
                    "y": 0.0864044651389122
                },
                {
                    "x": 0.0865790843963623,
                    "y": 0.35224029421806335
                },
                {
                    "x": 0.2919376790523529,
                    "y": 0.6837928891181946
                },
                {
                    "x": 0.5740004777908325,
                    "y": 1.0625182390213013
                }
            ],
            "palette": [
                "0x434543",
                "0x818183",
                "0x6a6b6c",
                "0x313532",
                "0x545656",
                "0x1f211e"
            ],
            "palette_weight": [
                0.1898844689130783,
                0.2118055522441864,
                0.23527520895004272,
                0.13891568779945374,
                0.1783854216337204,
                0.04573366791009903
            ],
            "start_frame_num": 296
        },
        {
            "duration": 241,
            "motion": [
                {
                    "x": 0.16014939546585083,
                    "y": -0.010103951208293438
                },
                {
                    "x": 0.06193069368600845,
                    "y": -0.003055556444451213
                },
                {
                    "x": 0.19856619834899902,
                    "y": -0.056915540248155594
                },
                {
                    "x": 0.27619126439094543,
                    "y": -0.07653587311506271
                },
                {
                    "x": 0.2912193834781647,
                    "y": -0.017423288896679878
                },
                {
                    "x": 0.30776849389076233,
                    "y": -0.07957693189382553
                },
                {
                    "x": -0.03755167871713638,
                    "y": 0.007320775184780359
                },
                {
                    "x": -0.038461871445178986,
                    "y": -0.037618450820446014
                },
                {
                    "x": 0.2291758805513382,
                    "y": -0.0406615175306797
                },
                {
                    "x": 0.028902767226099968,
                    "y": -0.26468944549560547
                },
                {
                    "x": 0.1355305016040802,
                    "y": -0.005745272152125835
                },
                {
                    "x": 0.06314396113157272,
                    "y": -0.07456754893064499
                },
                {
                    "x": 0.05149950832128525,
                    "y": -0.09141379594802856
                },
                {
                    "x": 0.10227895528078079,
                    "y": -0.1613803654909134
                },
                {
                    "x": 0.13989901542663574,
                    "y": -0.27905839681625366
                },
                {
                    "x": 0.27626481652259827,
                    "y": -0.023002641275525093
                },
                {
                    "x": 0.2492717057466507,
                    "y": -0.015676217153668404
                },
                {
                    "x": 0.16277973353862762,
                    "y": -0.05246280878782272
                },
                {
                    "x": 0.10795316100120544,
                    "y": -0.039190493524074554
                },
                {
                    "x": 0.03488931804895401,
                    "y": -0.3372749388217926
                },
                {
                    "x": -0.023433104157447815,
                    "y": -0.03592027351260185
                },
                {
                    "x": 0.1690017133951187,
                    "y": -0.09265664964914322
                },
                {
                    "x": -0.09177447110414505,
                    "y": -0.08921569585800171
                },
                {
                    "x": -0.05113046243786812,
                    "y": -0.11008238047361374
                },
                {
                    "x": -0.016793938353657722,
                    "y": -0.2771148681640625
                }
            ],
            "palette": [
                "0x52524d",
                "0xa5a3a3",
                "0x353e3e",
                "0x606970",
                "0x33271d",
                "0x886c52"
            ],
            "palette_weight": [
                0.21686922013759613,
                0.0729166641831398,
                0.26261359453201294,
                0.26559820771217346,
                0.11877357959747314,
                0.06322874128818512
            ],
            "start_frame_num": 557
        },
        {
            "duration": 122,
            "motion": [
                {
                    "x": 0.1607251912355423,
                    "y": 0.07608547061681747
                },
                {
                    "x": -0.9265807867050171,
                    "y": 0.6994430422782898
                },
                {
                    "x": -0.3853902518749237,
                    "y": 0.6370648145675659
                },
                {
                    "x": -0.3317824602127075,
                    "y": 0.7839250564575195
                },
                {
                    "x": -0.481094628572464,
                    "y": 1.2335222959518433
                },
                {
                    "x": -0.7478960752487183,
                    "y": 0.8308472633361816
                },
                {
                    "x": -0.1523345708847046,
                    "y": 0.610325276851654
                },
                {
                    "x": 0.11511915922164917,
                    "y": 0.5097823143005371
                },
                {
                    "x": 0.31735435128211975,
                    "y": 0.7179084420204163
                },
                {
                    "x": 0.3782911002635956,
                    "y": 0.9369407296180725
                },
                {
                    "x": -0.7710608839988708,
                    "y": 0.6880806684494019
                },
                {
                    "x": -0.1019556075334549,
                    "y": 0.6119032502174377
                },
                {
                    "x": 0.09296637028455734,
                    "y": 0.5578904151916504
                },
                {
                    "x": 0.37858685851097107,
                    "y": 0.749216616153717
                },
                {
                    "x": 0.4359128177165985,
                    "y": 1.080597996711731
                },
                {
                    "x": 0.5400377511978149,
                    "y": 0.4944116175174713
                },
                {
                    "x": 0.6762480735778809,
                    "y": 0.5455260872840881
                },
                {
                    "x": 1.0640020370483398,
                    "y": 0.7500393390655518
                },
                {
                    "x": 1.0854297876358032,
                    "y": 0.69303297996521
                },
                {
                    "x": 0.9114664196968079,
                    "y": 1.0001311302185059
                },
                {
                    "x": 1.2083072662353516,
                    "y": 0.36973831057548523
                },
                {
                    "x": 1.20787513256073,
                    "y": 0.33849141001701355
                },
                {
                    "x": 1.1870132684707642,
                    "y": 0.5451468825340271
                },
                {
                    "x": 1.1452099084854126,
                    "y": 0.8169425129890442
                },
                {
                    "x": 0.8036537766456604,
                    "y": 1.0684889554977417
                }
            ],
            "palette": [
                "0x545a57",
                "0x404742",
                "0x777777",
                "0x939595",
                "0x2b2f2b",
                "0x676969"
            ],
            "palette_weight": [
                0.2338498830795288,
                0.19017381966114044,
                0.16986560821533203,
                0.04287229850888252,
                0.11314193159341812,
                0.2500964403152466
            ],
            "start_frame_num": 798
        },
        {
            "duration": 234,
            "motion": [
                {
                    "x": 0.4235851466655731,
                    "y": -0.3917982280254364
                },
                {
                    "x": 1.3378499746322632,
                    "y": -0.8351821303367615
                },
                {
                    "x": 0.29257240891456604,
                    "y": -0.46660661697387695
                },
                {
                    "x": 0.2078433781862259,
                    "y": -0.3823246955871582
                },
                {
                    "x": 0.17484883964061737,
                    "y": -0.4025940001010895
                },
                {
                    "x": 0.06959953904151917,
                    "y": -0.22800767421722412
                },
                {
                    "x": 0.10664062201976776,
                    "y": -0.4059840142726898
                },
                {
                    "x": 0.8334156274795532,
                    "y": -0.6679720878601074
                },
                {
                    "x": 0.22699637711048126,
                    "y": -0.32489916682243347
                },
                {
                    "x": 0.16662809252738953,
                    "y": -0.357524037361145
                },
                {
                    "x": 1.2588417530059814,
                    "y": -0.6837809085845947
                },
                {
                    "x": 0.48857882618904114,
                    "y": -0.5213369131088257
                },
                {
                    "x": 0.34554722905158997,
                    "y": -0.42669758200645447
                },
                {
                    "x": 0.11454401165246964,
                    "y": -0.4765947461128235
                },
                {
                    "x": -0.19940458238124847,
                    "y": -0.5407665967941284
                },
                {
                    "x": 1.6774961948394775,
                    "y": -0.8028498291969299
                },
                {
                    "x": 0.6814847588539124,
                    "y": -0.4840811789035797
                },
                {
                    "x": -0.09148228168487549,
                    "y": -0.495778352022171
                },
                {
                    "x": 0.05372088775038719,
                    "y": -0.4724852740764618
                },
                {
                    "x": 0.09616845101118088,
                    "y": -0.443589985370636
                },
                {
                    "x": -0.19138595461845398,
                    "y": -0.5985314249992371
                },
                {
                    "x": -0.25431185960769653,
                    "y": -0.5461694002151489
                },
                {
                    "x": 0.026227734982967377,
                    "y": -0.45527058839797974
                },
                {
                    "x": 0.275513231754303,
                    "y": -0.341490775346756
                },
                {
                    "x": -0.12228073924779892,
                    "y": -0.5716054439544678
                }
            ],
            "palette": [
                "0x516158",
                "0xb3b3b3",
                "0x8f9293",
                "0x644d35",
                "0x372e1d",
                "0x727b73"
            ],
            "palette_weight": [
                0.11479230970144272,
                0.1277381330728531,
                0.3472275733947754,
                0.07754629850387573,
                0.1038183718919754,
                0.22887732088565826
            ],
            "start_frame_num": 920
        },
        {
            "duration": 697,
            "motion": [
                {
                    "x": 0.14855575561523438,
                    "y": 0.588231086730957
                },
                {
                    "x": 0.11509755253791809,
                    "y": 0.5693233013153076
                },
                {
                    "x": 0.060915056616067886,
                    "y": 0.5036007165908813
                },
                {
                    "x": 0.004884188529103994,
                    "y": 0.500403642654419
                },
                {
                    "x": -0.04417668282985687,
                    "y": 0.5010075569152832
                },
                {
                    "x": 0.1716739684343338,
                    "y": 0.6261689066886902
                },
                {
                    "x": 0.27590033411979675,
                    "y": 0.5879082679748535
                },
                {
                    "x": 0.21074965596199036,
                    "y": 0.5491247177124023
                },
                {
                    "x": 0.1516253799200058,
                    "y": 0.5352015495300293
                },
                {
                    "x": 0.04742656275629997,
                    "y": 0.525841474533081
                },
                {
                    "x": 0.5006914138793945,
                    "y": 0.714665949344635
                },
                {
                    "x": 0.12102958559989929,
                    "y": 0.710016667842865
                },
                {
                    "x": 0.18991036713123322,
                    "y": 0.5606384873390198
                },
                {
                    "x": 0.17287732660770416,
                    "y": 0.5229388475418091
                },
                {
                    "x": 0.13299794495105743,
                    "y": 0.5246319770812988
                },
                {
                    "x": 0.0758558064699173,
                    "y": 0.9103702306747437
                },
                {
                    "x": 0.0852917805314064,
                    "y": 0.6356156468391418
                },
                {
                    "x": 0.2849518656730652,
                    "y": 0.6606116890907288
                },
                {
                    "x": 0.0953134074807167,
                    "y": 0.6125833988189697
                },
                {
                    "x": 0.08875592052936554,
                    "y": 0.6337201595306396
                },
                {
                    "x": 0.03142557665705681,
                    "y": 0.7469205260276794
                },
                {
                    "x": -0.40100061893463135,
                    "y": 0.9140191674232483
                },
                {
                    "x": 0.13128472864627838,
                    "y": 0.6098420023918152
                },
                {
                    "x": -0.1262570321559906,
                    "y": 0.534787654876709
                },
                {
                    "x": 0.04402986168861389,
                    "y": 0.4064140021800995
                }
            ],
            "palette": [
                "0xa4a89a",
                "0x5e898b",
                "0x907c53",
                "0x624e41",
                "0xd5dbdc",
                "0x55676a"
            ],
            "palette_weight": [
                0.13106031715869904,
                0.21083569526672363,
                0.16947980225086212,
                0.12554119527339935,
                0.060410235077142715,
                0.30267274379730225
            ],
            "start_frame_num": 1154
        },
        {
            "duration": 387,
            "motion": [
                {
                    "x": 0.35468465089797974,
                    "y": 0.06608700007200241
                },
                {
                    "x": 0.0,
                    "y": 0.0
                },
                {
                    "x": 0.43039780855178833,
                    "y": 0.0267817173153162
                },
                {
                    "x": 0.32722920179367065,
                    "y": 0.048003945499658585
                },
                {
                    "x": 0.32314348220825195,
                    "y": 0.02551661990582943
                },
                {
                    "x": -0.17681635916233063,
                    "y": 0.12129580974578857
                },
                {
                    "x": 0.0,
                    "y": 0.0
                },
                {
                    "x": 0.3129926025867462,
                    "y": 0.029595445841550827
                },
                {
                    "x": 0.3486270308494568,
                    "y": 0.049094058573246
                },
                {
                    "x": 0.24724449217319489,
                    "y": 0.04806550592184067
                },
                {
                    "x": 0.3884672522544861,
                    "y": 0.005869791842997074
                },
                {
                    "x": 0.0,
                    "y": 0.0
                },
                {
                    "x": 0.36812132596969604,
                    "y": 0.0385589599609375
                },
                {
                    "x": 0.2498493194580078,
                    "y": 0.18205468356609344
                },
                {
                    "x": 0.03073275461792946,
                    "y": 0.10485592484474182
                },
                {
                    "x": 2.4206655025482178,
                    "y": 0.07465416193008423
                },
                {
                    "x": 0.4220772981643677,
                    "y": 0.007299036253243685
                },
                {
                    "x": 0.3488406240940094,
                    "y": 0.03911710903048515
                },
                {
                    "x": 0.01246256660670042,
                    "y": 0.12891031801700592
                },
                {
                    "x": 0.12045072764158249,
                    "y": 0.08696696907281876
                },
                {
                    "x": 0.0,
                    "y": 0.0
                },
                {
                    "x": 0.37018251419067383,
                    "y": 0.015626072883605957
                },
                {
                    "x": 0.28679805994033813,
                    "y": 0.04264356195926666
                },
                {
                    "x": 0.20665809512138367,
                    "y": 0.05644262209534645
                },
                {
                    "x": 0.12445946782827377,
                    "y": 0.06282874196767807
                }
            ],
            "palette": [
                "0x7b7a7e",
                "0x20201c",
                "0x4d5054",
                "0x999697",
                "0xc8c2b5",
                "0x373d3e"
            ],
            "palette_weight": [
                0.14546360075473785,
                0.09076002985239029,
                0.24616341292858124,
                0.1334179937839508,
                0.04191315174102783,
                0.3422818183898926
            ],
            "start_frame_num": 1851
        },
        {
            "duration": 162,
            "motion": [
                {
                    "x": 0.0,
                    "y": 0.0
                },
                {
                    "x": -0.42567652463912964,
                    "y": -0.028116408735513687
                },
                {
                    "x": -0.7362691164016724,
                    "y": 0.020146071910858154
                },
                {
                    "x": -2.2027130126953125,
                    "y": 0.8112239241600037
                },
                {
                    "x": -4.193657875061035,
                    "y": 2.350069999694824
                },
                {
                    "x": 0.0,
                    "y": 0.0
                },
                {
                    "x": -0.03765970841050148,
                    "y": 0.010455703362822533
                },
                {
                    "x": 0.23949886858463287,
                    "y": 0.020573193207383156
                },
                {
                    "x": -1.102239727973938,
                    "y": 0.803787112236023
                },
                {
                    "x": -2.712007761001587,
                    "y": 2.5570390224456787
                },
                {
                    "x": 0.0,
                    "y": 0.0
                },
                {
                    "x": -0.04719310253858566,
                    "y": 0.02008182369172573
                },
                {
                    "x": 0.6850475668907166,
                    "y": -0.18718130886554718
                },
                {
                    "x": 0.33101800084114075,
                    "y": 0.8123457431793213
                },
                {
                    "x": -0.6126726269721985,
                    "y": 2.4888694286346436
                },
                {
                    "x": 0.0,
                    "y": 0.0
                },
                {
                    "x": -0.08388912677764893,
                    "y": 0.031110143288969994
                },
                {
                    "x": 0.12972109019756317,
                    "y": 0.027105538174510002
                },
                {
                    "x": 1.0808786153793335,
                    "y": 0.705000102519989
                },
                {
                    "x": 1.8704793453216553,
                    "y": 2.28578782081604
                },
                {
                    "x": 0.0,
                    "y": 0.0
                },
                {
                    "x": -0.7085870504379272,
                    "y": -0.41272425651550293
                },
                {
                    "x": 0.3138132393360138,
                    "y": 0.026792878285050392
                },
                {
                    "x": 2.5239830017089844,
                    "y": 0.25060155987739563
                },
                {
                    "x": 3.6585538387298584,
                    "y": 2.2668840885162354
                }
            ],
            "palette": [
                "0xa7b1b9",
                "0x3c4047",
                "0x808b97",
                "0x181818",
                "0x5c636a",
                "0xc9ced1"
            ],
            "palette_weight": [
                0.2167995572090149,
                0.21105538308620453,
                0.17163386940956116,
                0.05466606467962265,
                0.1831650733947754,
                0.16268004477024078
            ],
            "start_frame_num": 2238
        },
        {
            "duration": 229,
            "motion": [
                {
                    "x": 0.0,
                    "y": 0.0
                },
                {
                    "x": -0.07001132518053055,
                    "y": -0.03887251019477844
                },
                {
                    "x": -0.3903701901435852,
                    "y": 0.0026009792927652597
                },
                {
                    "x": -1.906480073928833,
                    "y": 1.0335628986358643
                },
                {
                    "x": -3.397291421890259,
                    "y": 3.6196305751800537
                },
                {
                    "x": 0.0,
                    "y": 0.0
                },
                {
                    "x": -0.03206397220492363,
                    "y": -0.004894765093922615
                },
                {
                    "x": -0.025479329749941826,
                    "y": 0.0009252929594367743
                },
                {
                    "x": -0.3680926561355591,
                    "y": 1.0302668809890747
                },
                {
                    "x": -0.6286113262176514,
                    "y": 3.5684869289398193
                },
                {
                    "x": 0.0,
                    "y": 0.0
                },
                {
                    "x": 0.0,
                    "y": 0.0
                },
                {
                    "x": 0.09877143055200577,
                    "y": 0.02612609788775444
                },
                {
                    "x": 1.1282237768173218,
                    "y": 0.9585976004600525
                },
                {
                    "x": 2.081979751586914,
                    "y": 3.528803825378418
                },
                {
                    "x": 0.0,
                    "y": 0.0
                },
                {
                    "x": 0.10635445266962051,
                    "y": -0.005002124235033989
                },
                {
                    "x": 0.09496243298053741,
                    "y": 0.17039313912391663
                },
                {
                    "x": 2.445302724838257,
                    "y": 0.9436356425285339
                },
                {
                    "x": 4.845479965209961,
                    "y": 3.451241970062256
                },
                {
                    "x": 0.0,
                    "y": 0.0
                },
                {
                    "x": 0.16162462532520294,
                    "y": 0.10644480586051941
                },
                {
                    "x": 0.7375698685646057,
                    "y": 0.1961471289396286
                },
                {
                    "x": 3.7430131435394287,
                    "y": 0.9392592310905457
                },
                {
                    "x": 7.327586650848389,
                    "y": 3.2833566665649414
                }
            ],
            "palette": [
                "0xcccfd5",
                "0x585d61",
                "0x848991",
                "0x1b1913",
                "0xacb1ba",
                "0x3c3e3c"
            ],
            "palette_weight": [
                0.16668809950351715,
                0.2043413519859314,
                0.1853673756122589,
                0.09126371890306473,
                0.19497492909431458,
                0.15736454725265503
            ],
            "start_frame_num": 2400
        },
        {
            "duration": 106,
            "motion": [
                {
                    "x": 0.0,
                    "y": 0.0
                },
                {
                    "x": 4.471871852874756,
                    "y": -0.07218088209629059
                },
                {
                    "x": 2.9542951583862305,
                    "y": -0.07705194503068924
                },
                {
                    "x": 0.1825927346944809,
                    "y": 0.3248700797557831
                },
                {
                    "x": -0.11146747320890427,
                    "y": -0.20998667180538177
                },
                {
                    "x": 0.0,
                    "y": 0.0
                },
                {
                    "x": -1.153652310371399,
                    "y": 0.1256033182144165
                },
                {
                    "x": -0.4586256444454193,
                    "y": 0.03333611413836479
                },
                {
                    "x": 0.5866624712944031,
                    "y": -0.0009382659336552024
                },
                {
                    "x": 0.12160925567150116,
                    "y": 0.312314510345459
                },
                {
                    "x": 0.0,
                    "y": 0.0
                },
                {
                    "x": 0.0,
                    "y": 0.0
                },
                {
                    "x": -0.18219712376594543,
                    "y": -0.21025340259075165
                },
                {
                    "x": 0.4721473157405853,
                    "y": -0.25755682587623596
                },
                {
                    "x": 0.9042528867721558,
                    "y": 0.3787075877189636
                },
                {
                    "x": 0.0,
                    "y": 0.0
                },
                {
                    "x": 0.0,
                    "y": 0.0
                },
                {
                    "x": 0.8128764033317566,
                    "y": -0.018342560157179832
                },
                {
                    "x": 1.1646835803985596,
                    "y": -0.17265424132347107
                },
                {
                    "x": 1.7247155904769897,
                    "y": 0.505760669708252
                },
                {
                    "x": 0.0,
                    "y": 0.0
                },
                {
                    "x": 0.0,
                    "y": 0.0
                },
                {
                    "x": 0.25553685426712036,
                    "y": 0.11732886731624603
                },
                {
                    "x": 0.011177810840308666,
                    "y": 0.07466708868741989
                },
                {
                    "x": 0.02027122490108013,
                    "y": 0.02054648846387863
                }
            ],
            "palette": [
                "0xafb3ba",
                "0x474742",
                "0x62686a",
                "0x8a8e94",
                "0x241e16",
                "0xcdcfd3"
            ],
            "palette_weight": [
                0.20384837687015533,
                0.1482231616973877,
                0.2052522748708725,
                0.19703254103660583,
                0.10054976493120193,
                0.1450938731431961
            ],
            "start_frame_num": 2629
        },
        {
            "duration": 378,
            "motion": [
                {
                    "x": 0.0,
                    "y": 0.0
                },
                {
                    "x": -4.034739971160889,
                    "y": -0.037404872477054596
                },
                {
                    "x": -3.9057552814483643,
                    "y": 0.06382682174444199
                },
                {
                    "x": -3.5796597003936768,
                    "y": 0.14015580713748932
                },
                {
                    "x": -2.4470574855804443,
                    "y": 0.2686876058578491
                },
                {
                    "x": 0.0,
                    "y": 0.0
                },
                {
                    "x": -3.777452230453491,
                    "y": -0.009114074520766735
                },
                {
                    "x": -3.766617774963379,
                    "y": 0.0392996221780777
                },
                {
                    "x": -3.319903612136841,
                    "y": 0.10567429661750793
                },
                {
                    "x": -2.2113282680511475,
                    "y": 0.16337573528289795
                },
                {
                    "x": 0.0,
                    "y": 0.0
                },
                {
                    "x": -3.6753432750701904,
                    "y": 0.016907060518860817
                },
                {
                    "x": -3.5532352924346924,
                    "y": 0.0371280200779438
                },
                {
                    "x": -3.1305665969848633,
                    "y": 0.10181944817304611
                },
                {
                    "x": -2.015730619430542,
                    "y": 0.06126224249601364
                },
                {
                    "x": 0.0,
                    "y": 0.0
                },
                {
                    "x": -3.72505784034729,
                    "y": 0.03887775167822838
                },
                {
                    "x": -3.433702230453491,
                    "y": 0.03701819106936455
                },
                {
                    "x": -2.850337505340576,
                    "y": 0.08802836388349533
                },
                {
                    "x": -1.645081877708435,
                    "y": 0.08999625593423843
                },
                {
                    "x": 0.0,
                    "y": 0.0
                },
                {
                    "x": -4.015811920166016,
                    "y": 0.07231983542442322
                },
                {
                    "x": -3.8782782554626465,
                    "y": 0.03024177812039852
                },
                {
                    "x": -3.20483136177063,
                    "y": -0.02306973934173584
                },
                {
                    "x": -1.9917736053466797,
                    "y": 0.14701369404792786
                }
            ],
            "palette": [
                "0xb0b9c9",
                "0x2a231a",
                "0x5f6465",
                "0x4a4036",
                "0x9faab7",
                "0x788587"
            ],
            "palette_weight": [
                0.2804623246192932,
                0.1487911492586136,
                0.1510845273733139,
                0.14246827363967896,
                0.19747191667556763,
                0.07972179353237152
            ],
            "start_frame_num": 2735
        },
        {
            "duration": 815,
            "motion": [
                {
                    "x": 0.0,
                    "y": 0.0
                },
                {
                    "x": 0.5967705845832825,
                    "y": 0.004991872236132622
                },
                {
                    "x": 0.18001776933670044,
                    "y": 0.07686080038547516
                },
                {
                    "x": -0.3218783140182495,
                    "y": 0.06701989471912384
                },
                {
                    "x": -0.6150599718093872,
                    "y": 0.6859323978424072
                },
                {
                    "x": 0.0,
                    "y": 0.0
                },
                {
                    "x": 0.01907275803387165,
                    "y": -0.00019487901590764523
                },
                {
                    "x": -0.042832136154174805,
                    "y": -0.01162766758352518
                },
                {
                    "x": -0.2851734459400177,
                    "y": 0.08841602504253387
                },
                {
                    "x": -0.22269044816493988,
                    "y": 0.6902445554733276
                },
                {
                    "x": 0.0,
                    "y": 0.0
                },
                {
                    "x": 0.0,
                    "y": 0.0
                },
                {
                    "x": 0.07558570802211761,
                    "y": 0.007617074530571699
                },
                {
                    "x": -0.007962360046803951,
                    "y": 0.17562051117420197
                },
                {
                    "x": 0.1773623675107956,
                    "y": 0.7555049657821655
                },
                {
                    "x": 0.0,
                    "y": 0.0
                },
                {
                    "x": 0.0,
                    "y": 0.0
                },
                {
                    "x": 0.22388984262943268,
                    "y": 0.007690147031098604
                },
                {
                    "x": 0.5583836436271667,
                    "y": 0.13214975595474243
                },
                {
                    "x": 1.0083719491958618,
                    "y": 0.6642961502075195
                },
                {
                    "x": 0.0,
                    "y": 0.0
                },
                {
                    "x": 0.34649842977523804,
                    "y": -0.05390826240181923
                },
                {
                    "x": 0.42009416222572327,
                    "y": 0.005247177090495825
                },
                {
                    "x": 0.6610478162765503,
                    "y": 0.12393505126237869
                },
                {
                    "x": 1.3769077062606812,
                    "y": 0.6335699558258057
                }
            ],
            "palette": [
                "0x959da5",
                "0x18160f",
                "0xc0c6cd",
                "0x383423",
                "0x515440",
                "0x6f7678"
            ],
            "palette_weight": [
                0.253654420375824,
                0.13021905720233917,
                0.29841822385787964,
                0.12232081592082977,
                0.07596557587385178,
                0.11942193657159805
            ],
            "start_frame_num": 3113
        },
        {
            "duration": 1004,
            "motion": [
                {
                    "x": -0.03662945702672005,
                    "y": 0.44733908772468567
                },
                {
                    "x": -0.08082613348960876,
                    "y": 0.470408171415329
                },
                {
                    "x": 0.010507692582905293,
                    "y": 0.42617741227149963
                },
                {
                    "x": -0.09466375410556793,
                    "y": 0.35230061411857605
                },
                {
                    "x": -0.0024172822013497353,
                    "y": 0.28952592611312866
                },
                {
                    "x": 0.02386314421892166,
                    "y": 0.4163191020488739
                },
                {
                    "x": -0.030043594539165497,
                    "y": 0.41170236468315125
                },
                {
                    "x": -0.06983380019664764,
                    "y": 0.3992772400379181
                },
                {
                    "x": -0.1316910684108734,
                    "y": 0.39566656947135925
                },
                {
                    "x": -0.14821848273277283,
                    "y": 0.4221346080303192
                },
                {
                    "x": 0.09706353396177292,
                    "y": 0.38388553261756897
                },
                {
                    "x": 0.07443691790103912,
                    "y": 0.4169291853904724
                },
                {
                    "x": 0.02507876604795456,
                    "y": 0.3829065263271332
                },
                {
                    "x": -0.006264404393732548,
                    "y": 0.4154023230075836
                },
                {
                    "x": -0.010790619067847729,
                    "y": 0.4005676507949829
                },
                {
                    "x": 0.13673135638237,
                    "y": 0.3805409073829651
                },
                {
                    "x": 0.07417792081832886,
                    "y": 0.4234192967414856
                },
                {
                    "x": 0.04184066876769066,
                    "y": 0.42555105686187744
                },
                {
                    "x": -0.021474212408065796,
                    "y": 0.4018499255180359
                },
                {
                    "x": -0.06324081122875214,
                    "y": 0.38769516348838806
                },
                {
                    "x": -0.008745837025344372,
                    "y": 0.3951551616191864
                },
                {
                    "x": 0.049897827208042145,
                    "y": 0.3827235996723175
                },
                {
                    "x": 0.01975064165890217,
                    "y": 0.4525635838508606
                },
                {
                    "x": 0.014816894195973873,
                    "y": 0.43263110518455505
                },
                {
                    "x": -0.02259146049618721,
                    "y": 0.4292522966861725
                }
            ],
            "palette": [
                "0x4c584d",
                "0xb5bdc1",
                "0x383b37",
                "0x5d7567",
                "0x84938f",
                "0xdee4e8"
            ],
            "palette_weight": [
                0.2390582114458084,
                0.0865912213921547,
                0.24307163059711456,
                0.21663880348205566,
                0.0945323184132576,
                0.12010780721902847
            ],
            "start_frame_num": 3928
        },
        {
            "duration": 162,
            "motion": [
                {
                    "x": 0.0,
                    "y": 0.0
                },
                {
                    "x": 0.5289286971092224,
                    "y": -0.015713319182395935
                },
                {
                    "x": 1.1584522724151611,
                    "y": -0.278820663690567
                },
                {
                    "x": 1.1370232105255127,
                    "y": -0.05181063711643219
                },
                {
                    "x": 1.10914945602417,
                    "y": 0.33456364274024963
                },
                {
                    "x": 0.0,
                    "y": 0.0
                },
                {
                    "x": 0.0,
                    "y": 0.0
                },
                {
                    "x": 1.054956316947937,
                    "y": -0.04354307800531387
                },
                {
                    "x": 0.2519393265247345,
                    "y": -0.3922779858112335
                },
                {
                    "x": 0.1240839883685112,
                    "y": 0.05210017040371895
                },
                {
                    "x": 0.0,
                    "y": 0.0
                },
                {
                    "x": 0.0,
                    "y": 0.0
                },
                {
                    "x": -0.030581897124648094,
                    "y": -0.1328161656856537
                },
                {
                    "x": 0.2832096815109253,
                    "y": -0.2623271644115448
                },
                {
                    "x": 0.23289412260055542,
                    "y": -0.18675386905670166
                },
                {
                    "x": 0.0,
                    "y": 0.0
                },
                {
                    "x": 0.0,
                    "y": 0.0
                },
                {
                    "x": -1.2551805973052979,
                    "y": -0.21415652334690094
                },
                {
                    "x": -0.5486301183700562,
                    "y": -0.20145291090011597
                },
                {
                    "x": -0.8202099204063416,
                    "y": -0.2819273769855499
                },
                {
                    "x": 0.0,
                    "y": 0.0
                },
                {
                    "x": 0.0,
                    "y": 0.0
                },
                {
                    "x": -0.926826000213623,
                    "y": -0.2210918366909027
                },
                {
                    "x": -0.8313220143318176,
                    "y": -0.1781163215637207
                },
                {
                    "x": -0.002636680146679282,
                    "y": -0.1957947015762329
                }
            ],
            "palette": [
                "0x9eacbe",
                "0x443a2e",
                "0x251e16",
                "0xc2ccd4",
                "0x747674",
                "0x5e5845"
            ],
            "palette_weight": [
                0.3585551679134369,
                0.17368613183498383,
                0.12410515546798706,
                0.11696780472993851,
                0.1094178706407547,
                0.11726787686347961
            ],
            "start_frame_num": 4932
        },
        {
            "duration": 194,
            "motion": [
                {
                    "x": 0.7835963368415833,
                    "y": -0.09467509388923645
                },
                {
                    "x": 0.5086590647697449,
                    "y": -0.3364544212818146
                },
                {
                    "x": 0.43280431628227234,
                    "y": -0.3045614957809448
                },
                {
                    "x": 0.4601447582244873,
                    "y": 0.31339231133461
                },
                {
                    "x": -0.06248615309596062,
                    "y": 0.07546092569828033
                },
                {
                    "x": -0.2119772732257843,
                    "y": -0.20904189348220825
                },
                {
                    "x": -0.11334236711263657,
                    "y": -0.34714382886886597
                },
                {
                    "x": -0.20709148049354553,
                    "y": 0.021426310762763023
                },
                {
                    "x": 0.012714123353362083,
                    "y": 0.058891661465168
                },
                {
                    "x": -0.0569288469851017,
                    "y": 0.01709856279194355
                },
                {
                    "x": -0.8854434490203857,
                    "y": -0.32929179072380066
                },
                {
                    "x": -1.2292882204055786,
                    "y": -0.26328498125076294
                },
                {
                    "x": -0.3408917188644409,
                    "y": 0.17366373538970947
                },
                {
                    "x": -0.044588278979063034,
                    "y": 0.057680726051330566
                },
                {
                    "x": -0.038203164935112,
                    "y": 0.03680839762091637
                },
                {
                    "x": -0.8791258931159973,
                    "y": 0.010826833546161652
                },
                {
                    "x": -0.5288395881652832,
                    "y": 0.19879761338233948
                },
                {
                    "x": 0.3012290596961975,
                    "y": 0.24652308225631714
                },
                {
                    "x": 0.3702130913734436,
                    "y": 0.4459967315196991
                },
                {
                    "x": 0.5128869414329529,
                    "y": 0.2990798056125641
                },
                {
                    "x": -0.28343522548675537,
                    "y": 0.12200924009084702
                },
                {
                    "x": -0.11945222318172455,
                    "y": 0.2528095543384552
                },
                {
                    "x": 0.2954535186290741,
                    "y": 0.2494376003742218
                },
                {
                    "x": -0.033464863896369934,
                    "y": 0.0663396418094635
                },
                {
                    "x": 0.5188865065574646,
                    "y": 0.43916192650794983
                }
            ],
            "palette": [
                "0x889691",
                "0x372921",
                "0x5e5247",
                "0xc3ced1",
                "0x747870",
                "0xa2afae"
            ],
            "palette_weight": [
                0.26092571020126343,
                0.1365419179201126,
                0.16034379601478577,
                0.07978073507547379,
                0.19883830845355988,
                0.16356952488422394
            ],
            "start_frame_num": 5094
        },
        {
            "duration": 324,
            "motion": [
                {
                    "x": 0.0,
                    "y": 0.0
                },
                {
                    "x": 1.4006733894348145,
                    "y": -0.05126159265637398
                },
                {
                    "x": 1.1089452505111694,
                    "y": -0.01126317959278822
                },
                {
                    "x": 0.7106537818908691,
                    "y": -0.2574925720691681
                },
                {
                    "x": -0.11885340511798859,
                    "y": 0.11016778647899628
                },
                {
                    "x": 0.0,
                    "y": 0.0
                },
                {
                    "x": 0.005620727315545082,
                    "y": 0.01992645300924778
                },
                {
                    "x": -0.20782998204231262,
                    "y": -0.28985723853111267
                },
                {
                    "x": 0.12477922439575195,
                    "y": -0.22155365347862244
                },
                {
                    "x": 0.07250447571277618,
                    "y": 0.06939401477575302
                },
                {
                    "x": 0.0,
                    "y": 0.0
                },
                {
                    "x": 0.0,
                    "y": 0.0
                },
                {
                    "x": -0.7424043416976929,
                    "y": -0.1784830391407013
                },
                {
                    "x": 0.39673948287963867,
                    "y": 0.0012668132549151778
                },
                {
                    "x": 0.48995932936668396,
                    "y": 0.16342362761497498
                },
                {
                    "x": 0.0,
                    "y": 0.0
                },
                {
                    "x": 0.0,
                    "y": 0.0
                },
                {
                    "x": 0.697494387626648,
                    "y": 0.2805868685245514
                },
                {
                    "x": 0.7786046266555786,
                    "y": 0.22080416977405548
                },
                {
                    "x": 0.24757179617881775,
                    "y": 0.1347673535346985
                },
                {
                    "x": 0.0,
                    "y": 0.0
                },
                {
                    "x": 0.0,
                    "y": 0.0
                },
                {
                    "x": 0.1707444190979004,
                    "y": -0.040177252143621445
                },
                {
                    "x": 0.2246357798576355,
                    "y": -0.0026047087740153074
                },
                {
                    "x": 0.49858251214027405,
                    "y": 0.12883010506629944
                }
            ],
            "palette": [
                "0x8e95a1",
                "0x3c3d3f",
                "0xb9c2cc",
                "0x677178",
                "0x211b15",
                "0x4f575c"
            ],
            "palette_weight": [
                0.22527113556861877,
                0.10332540422677994,
                0.2889821231365204,
                0.16350522637367249,
                0.07762131094932556,
                0.14129479229450226
            ],
            "start_frame_num": 5288
        },
        {
            "duration": 455,
            "motion": [
                {
                    "x": -0.19977810978889465,
                    "y": 1.0833808183670044
                },
                {
                    "x": 0.05780861899256706,
                    "y": 1.233414888381958
                },
                {
                    "x": -0.09198793023824692,
                    "y": 1.3032480478286743
                },
                {
                    "x": -0.019288107752799988,
                    "y": 1.4698940515518188
                },
                {
                    "x": 0.0447271466255188,
                    "y": 1.6125423908233643
                },
                {
                    "x": -0.1140289455652237,
                    "y": 1.0571620464324951
                },
                {
                    "x": -0.12214841693639755,
                    "y": 1.1479088068008423
                },
                {
                    "x": 0.15166684985160828,
                    "y": 1.2864243984222412
                },
                {
                    "x": 0.30698955059051514,
                    "y": 1.4181265830993652
                },
                {
                    "x": 0.27478617429733276,
                    "y": 1.5414632558822632
                },
                {
                    "x": 0.03747653216123581,
                    "y": 0.949677586555481
                },
                {
                    "x": 0.0852368101477623,
                    "y": 1.0661613941192627
                },
                {
                    "x": 0.20515824854373932,
                    "y": 1.2423272132873535
                },
                {
                    "x": 0.3789277672767639,
                    "y": 1.3534022569656372
                },
                {
                    "x": 0.3313307762145996,
                    "y": 1.4543676376342773
                },
                {
                    "x": 0.17651841044425964,
                    "y": 1.0829390287399292
                },
                {
                    "x": 0.09394853562116623,
                    "y": 1.0314019918441772
                },
                {
                    "x": 0.018626617267727852,
                    "y": 1.1194347143173218
                },
                {
                    "x": 0.22271797060966492,
                    "y": 1.269758701324463
                },
                {
                    "x": -0.3180774748325348,
                    "y": 1.35720956325531
                },
                {
                    "x": 0.17925098538398743,
                    "y": 1.1133760213851929
                },
                {
                    "x": 0.28078871965408325,
                    "y": 1.1465623378753662
                },
                {
                    "x": 0.5178171396255493,
                    "y": 1.277777075767517
                },
                {
                    "x": 0.1619272232055664,
                    "y": 1.184521198272705
                },
                {
                    "x": 0.15021874010562897,
                    "y": 1.3996630907058716
                }
            ],
            "palette": [
                "0x84735e",
                "0x415d5e",
                "0xcbbfb6",
                "0x3c3b2e",
                "0xac9b8e",
                "0x557a7d"
            ],
            "palette_weight": [
                0.11947016417980194,
                0.2566765248775482,
                0.19299232959747314,
                0.16121184825897217,
                0.16751864552497864,
                0.10213048756122589
            ],
            "start_frame_num": 5612
        },
        {
            "duration": 838,
            "motion": [
                {
                    "x": 0.025640571489930153,
                    "y": -0.2296009659767151
                },
                {
                    "x": 0.1483699381351471,
                    "y": -0.2317580282688141
                },
                {
                    "x": 0.13019762933254242,
                    "y": -0.08583249896764755
                },
                {
                    "x": 0.06621415168046951,
                    "y": -0.17407728731632233
                },
                {
                    "x": 0.22695118188858032,
                    "y": -0.23847195506095886
                },
                {
                    "x": 0.039177726954221725,
                    "y": -0.26059773564338684
                },
                {
                    "x": 0.14072459936141968,
                    "y": -0.18717224895954132
                },
                {
                    "x": 0.09497008472681046,
                    "y": -0.08006751537322998
                },
                {
                    "x": -0.20373545587062836,
                    "y": -0.058721546083688736
                },
                {
                    "x": -0.22614756226539612,
                    "y": -0.11362393200397491
                },
                {
                    "x": -0.09174185991287231,
                    "y": -0.24568334221839905
                },
                {
                    "x": -0.008587258867919445,
                    "y": -0.1363990157842636
                },
                {
                    "x": 0.016158398240804672,
                    "y": -0.06260242313146591
                },
                {
                    "x": 0.04556051269173622,
                    "y": -0.05192161723971367
                },
                {
                    "x": -0.049278926104307175,
                    "y": -0.14213083684444427
                },
                {
                    "x": -0.06909395754337311,
                    "y": -0.2855047285556793
                },
                {
                    "x": -0.05233676731586456,
                    "y": -0.11704184859991074
                },
                {
                    "x": -0.0437019020318985,
                    "y": -0.05978803336620331
                },
                {
                    "x": -0.04828568920493126,
                    "y": -0.03217032179236412
                },
                {
                    "x": -0.07411877810955048,
                    "y": -0.029463257640600204
                },
                {
                    "x": -0.058676619082689285,
                    "y": -0.3025619089603424
                },
                {
                    "x": 0.03427544981241226,
                    "y": -0.26348385214805603
                },
                {
                    "x": -0.09166795015335083,
                    "y": -0.20236530900001526
                },
                {
                    "x": -0.06950242817401886,
                    "y": -0.08401107043027878
                },
                {
                    "x": -0.15334190428256989,
                    "y": -0.07565852999687195
                }
            ],
            "palette": [
                "0x798483",
                "0x526670",
                "0x9d9875",
                "0xb7baaa",
                "0x42332b",
                "0x705d46"
            ],
            "palette_weight": [
                0.20537550747394562,
                0.205643430352211,
                0.22952032089233398,
                0.13432355225086212,
                0.10430598258972168,
                0.1208311915397644
            ],
            "start_frame_num": 6067
        },
        {
            "duration": 389,
            "motion": [
                {
                    "x": -0.05518478900194168,
                    "y": 0.08728037774562836
                },
                {
                    "x": 0.2116125375032425,
                    "y": -0.021094541996717453
                },
                {
                    "x": 0.30738136172294617,
                    "y": 0.08668331801891327
                },
                {
                    "x": 0.46291953325271606,
                    "y": 0.19656845927238464
                },
                {
                    "x": -0.10575082153081894,
                    "y": 0.07168745249509811
                },
                {
                    "x": -0.012462234124541283,
                    "y": 0.042119644582271576
                },
                {
                    "x": 0.12796008586883545,
                    "y": -0.008454934693872929
                },
                {
                    "x": 0.33349570631980896,
                    "y": 0.0962604507803917
                },
                {
                    "x": 0.4150906503200531,
                    "y": 0.11444040387868881
                },
                {
                    "x": 0.30992138385772705,
                    "y": 0.15402935445308685
                },
                {
                    "x": 0.009571660310029984,
                    "y": 0.0027172632981091738
                },
                {
                    "x": 0.1890435516834259,
                    "y": -0.011648698709905148
                },
                {
                    "x": 0.2872319221496582,
                    "y": -0.003132371697574854
                },
                {
                    "x": 0.26798540353775024,
                    "y": 0.15126276016235352
                },
                {
                    "x": 0.14299435913562775,
                    "y": 0.18310832977294922
                },
                {
                    "x": 0.14557424187660217,
                    "y": 0.014340745285153389
                },
                {
                    "x": 0.19613473117351532,
                    "y": -0.00016132701421156526
                },
                {
                    "x": 0.28033679723739624,
                    "y": 0.010915772058069706
                },
                {
                    "x": 0.29785141348838806,
                    "y": -0.001598209491930902
                },
                {
                    "x": 0.16121968626976013,
                    "y": 0.2019086629152298
                },
                {
                    "x": -0.02818548120558262,
                    "y": 0.0055526141077280045
                },
                {
                    "x": 0.05565335974097252,
                    "y": -0.0026369960978627205
                },
                {
                    "x": 0.1833069622516632,
                    "y": -0.0026257007848471403
                },
                {
                    "x": -0.0014935381477698684,
                    "y": -0.021479539573192596
                },
                {
                    "x": -0.04141402244567871,
                    "y": 0.0364936999976635
                }
            ],
            "palette": [
                "0x372820",
                "0xa0a5ad",
                "0x6a787c",
                "0xbec2c9",
                "0x484e4b",
                "0x556363"
            ],
            "palette_weight": [
                0.05414094775915146,
                0.14784808456897736,
                0.21638159453868866,
                0.19736474752426147,
                0.1349451243877411,
                0.24931949377059937
            ],
            "start_frame_num": 6905
        },
        {
            "duration": 332,
            "motion": [
                {
                    "x": 0.015679288655519485,
                    "y": -0.02198578603565693
                },
                {
                    "x": -0.16147659718990326,
                    "y": -0.01090359129011631
                },
                {
                    "x": -0.21523749828338623,
                    "y": 0.6952556371688843
                },
                {
                    "x": -1.145326018333435,
                    "y": 0.8739497065544128
                },
                {
                    "x": -1.5196245908737183,
                    "y": 1.592070460319519
                },
                {
                    "x": -0.033262114971876144,
                    "y": -0.0002958832774311304
                },
                {
                    "x": -0.04746534675359726,
                    "y": -0.020342128351330757
                },
                {
                    "x": 0.14987368881702423,
                    "y": 0.6064938306808472
                },
                {
                    "x": -0.304532527923584,
                    "y": 0.8686805367469788
                },
                {
                    "x": -0.6873584389686584,
                    "y": 1.549923062324524
                },
                {
                    "x": 0.3034493029117584,
                    "y": -0.046117059886455536
                },
                {
                    "x": 0.39144980907440186,
                    "y": 0.05296742171049118
                },
                {
                    "x": 0.09465622156858444,
                    "y": 0.4862380623817444
                },
                {
                    "x": -0.10784688591957092,
                    "y": 0.7373329997062683
                },
                {
                    "x": -0.4762061536312103,
                    "y": 1.4598119258880615
                },
                {
                    "x": 0.187865749001503,
                    "y": 0.012308737263083458
                },
                {
                    "x": 0.41550716757774353,
                    "y": 0.0903690829873085
                },
                {
                    "x": 0.5121734142303467,
                    "y": 0.24465002119541168
                },
                {
                    "x": 0.10599596798419952,
                    "y": 0.8217427134513855
                },
                {
                    "x": 0.5658785104751587,
                    "y": 1.5028884410858154
                },
                {
                    "x": 0.49837204813957214,
                    "y": 0.04309192672371864
                },
                {
                    "x": 0.6552363038063049,
                    "y": 0.08143485337495804
                },
                {
                    "x": 0.5467761158943176,
                    "y": 0.1561276912689209
                },
                {
                    "x": 1.035715937614441,
                    "y": 0.7466662526130676
                },
                {
                    "x": 1.6780349016189575,
                    "y": 1.54497230052948
                }
            ],
            "palette": [
                "0xb7b8bc",
                "0x656863",
                "0x7d8588",
                "0x34261c",
                "0x4f4c41",
                "0xd1d4d9"
            ],
            "palette_weight": [
                0.11387067288160324,
                0.19291730225086212,
                0.3008723556995392,
                0.07847864925861359,
                0.18173439800739288,
                0.13212662935256958
            ],
            "start_frame_num": 7294
        },
        {
            "duration": 341,
            "motion": [
                {
                    "x": 0.1281793713569641,
                    "y": -0.10500451922416687
                },
                {
                    "x": -0.08075965195894241,
                    "y": -0.04804564639925957
                },
                {
                    "x": -0.34368249773979187,
                    "y": 0.3150899112224579
                },
                {
                    "x": -0.5755601525306702,
                    "y": 0.6521541476249695
                },
                {
                    "x": -0.7585429549217224,
                    "y": 1.0549546480178833
                },
                {
                    "x": 0.1496158242225647,
                    "y": 0.01627458445727825
                },
                {
                    "x": 0.16803866624832153,
                    "y": 0.05621444433927536
                },
                {
                    "x": 0.011662831529974937,
                    "y": 0.24552564322948456
                },
                {
                    "x": -0.10753384977579117,
                    "y": 0.6637624502182007
                },
                {
                    "x": -0.6331096887588501,
                    "y": 1.0191340446472168
                },
                {
                    "x": 0.012307368218898773,
                    "y": 0.03240375965833664
                },
                {
                    "x": 0.10549238324165344,
                    "y": 0.07383947819471359
                },
                {
                    "x": 0.13014905154705048,
                    "y": 0.21330976486206055
                },
                {
                    "x": -0.030832262709736824,
                    "y": 0.5992477536201477
                },
                {
                    "x": -0.04086960107088089,
                    "y": 0.9991772770881653
                },
                {
                    "x": 0.05566342920064926,
                    "y": 0.050306711345911026
                },
                {
                    "x": 0.029757898300886154,
                    "y": 0.08258145302534103
                },
                {
                    "x": -0.0859881192445755,
                    "y": 0.14773491024971008
                },
                {
                    "x": 0.08488844335079193,
                    "y": 0.7043770551681519
                },
                {
                    "x": 0.2169688493013382,
                    "y": 1.0084984302520752
                },
                {
                    "x": 0.5529130697250366,
                    "y": 0.11689690500497818
                },
                {
                    "x": 0.5499028563499451,
                    "y": 0.08815070241689682
                },
                {
                    "x": 0.20593379437923431,
                    "y": 0.13068179786205292
                },
                {
                    "x": 0.8350461721420288,
                    "y": 0.5659500360488892
                },
                {
                    "x": 1.0558991432189941,
                    "y": 0.9887219667434692
                }
            ],
            "palette": [
                "0xb9c2cc",
                "0x6d513c",
                "0x4c6365",
                "0x6d8083",
                "0x3e2e23",
                "0x9e8065"
            ],
            "palette_weight": [
                0.24181777238845825,
                0.11352773755788803,
                0.24341993033885956,
                0.21569572389125824,
                0.11626586318016052,
                0.069272980093956
            ],
            "start_frame_num": 7626
        },
        {
            "duration": 205,
            "motion": [
                {
                    "x": -2.2056782245635986,
                    "y": -0.022274814546108246
                },
                {
                    "x": -3.793013095855713,
                    "y": -0.021226266399025917
                },
                {
                    "x": -4.585145950317383,
                    "y": -0.06352879106998444
                },
                {
                    "x": -5.189645767211914,
                    "y": -0.2277752310037613
                },
                {
                    "x": -5.7169952392578125,
                    "y": -0.15335963666439056
                },
                {
                    "x": -1.8334312438964844,
                    "y": -0.0030881657730787992
                },
                {
                    "x": -2.807426691055298,
                    "y": 0.018906664103269577
                },
                {
                    "x": -4.006003379821777,
                    "y": -0.045683979988098145
                },
                {
                    "x": -4.591105937957764,
                    "y": -0.24252888560295105
                },
                {
                    "x": -5.109186172485352,
                    "y": -0.17848843336105347
                },
                {
                    "x": -1.4164257049560547,
                    "y": -0.015369374305009842
                },
                {
                    "x": -2.0256593227386475,
                    "y": -0.018514908850193024
                },
                {
                    "x": -3.226154327392578,
                    "y": 0.008576805703341961
                },
                {
                    "x": -3.9109907150268555,
                    "y": 0.018249891698360443
                },
                {
                    "x": -4.389710903167725,
                    "y": -0.08940185606479645
                },
                {
                    "x": -1.0510021448135376,
                    "y": -0.002918061800301075
                },
                {
                    "x": -1.6615440845489502,
                    "y": 0.10272854566574097
                },
                {
                    "x": -2.671599864959717,
                    "y": 0.16916394233703613
                },
                {
                    "x": -3.0863606929779053,
                    "y": 0.09796666353940964
                },
                {
                    "x": -3.6696834564208984,
                    "y": -0.04806989058852196
                },
                {
                    "x": 0.0,
                    "y": 0.0
                },
                {
                    "x": -1.1531277894973755,
                    "y": 0.3007461726665497
                },
                {
                    "x": -1.650740385055542,
                    "y": 0.16547974944114685
                },
                {
                    "x": -2.400503635406494,
                    "y": -0.03187796473503113
                },
                {
                    "x": -3.2119674682617188,
                    "y": -0.13934341073036194
                }
            ],
            "palette": [
                "0x28221b",
                "0xb7d7f0",
                "0x766251",
                "0x8e7f6f",
                "0x5d4b3a",
                "0x43372a"
            ],
            "palette_weight": [
                0.15159893035888672,
                0.2656571567058563,
                0.1397998183965683,
                0.10266096889972687,
                0.1496538519859314,
                0.1906292885541916
            ],
            "start_frame_num": 7967
        },
        {
            "duration": 294,
            "motion": [
                {
                    "x": -0.29488030076026917,
                    "y": 0.11925126612186432
                },
                {
                    "x": -0.25691452622413635,
                    "y": 0.4632285237312317
                },
                {
                    "x": -0.5667663812637329,
                    "y": 0.8267795443534851
                },
                {
                    "x": -0.7823835611343384,
                    "y": 1.178924322128296
                },
                {
                    "x": -1.2952888011932373,
                    "y": 1.9768816232681274
                },
                {
                    "x": -0.2221054583787918,
                    "y": 0.06661933660507202
                },
                {
                    "x": -0.02370326593518257,
                    "y": 0.5188295841217041
                },
                {
                    "x": -0.2657991051673889,
                    "y": 0.7290787100791931
                },
                {
                    "x": -0.331075519323349,
                    "y": 1.2173978090286255
                },
                {
                    "x": -0.3105738162994385,
                    "y": 1.9054911136627197
                },
                {
                    "x": 0.1102166548371315,
                    "y": 0.058308541774749756
                },
                {
                    "x": -0.23733215034008026,
                    "y": 0.4801340103149414
                },
                {
                    "x": -0.2916344404220581,
                    "y": 0.7127315402030945
                },
                {
                    "x": -0.34805503487586975,
                    "y": 1.3519245386123657
                },
                {
                    "x": -0.31645822525024414,
                    "y": 1.9195910692214966
                },
                {
                    "x": 0.5066660642623901,
                    "y": 0.03272895887494087
                },
                {
                    "x": -1.1821411848068237,
                    "y": 0.3103620111942291
                },
                {
                    "x": -1.0640010833740234,
                    "y": 0.7313035726547241
                },
                {
                    "x": -0.7884671688079834,
                    "y": 1.2222580909729004
                },
                {
                    "x": -0.9215465784072876,
                    "y": 1.8634039163589478
                },
                {
                    "x": -0.0076203132048249245,
                    "y": 0.001555591356009245
                },
                {
                    "x": -0.06481849402189255,
                    "y": 0.21962809562683105
                },
                {
                    "x": 0.28676894307136536,
                    "y": 0.7351430058479309
                },
                {
                    "x": 0.6613061428070068,
                    "y": 1.1844661235809326
                },
                {
                    "x": 0.6748033165931702,
                    "y": 1.7183036804199219
                }
            ],
            "palette": [
                "0x5a6a6d",
                "0xcdcfd3",
                "0x748488",
                "0x454741",
                "0xa1aaaf",
                "0x2a241f"
            ],
            "palette_weight": [
                0.2726069390773773,
                0.1465674340724945,
                0.265373170375824,
                0.11507094651460648,
                0.14300411939620972,
                0.0573774017393589
            ],
            "start_frame_num": 8172
        },
        {
            "duration": 236,
            "motion": [
                {
                    "x": 0.21161076426506042,
                    "y": -0.0076181311160326
                },
                {
                    "x": -0.14638029038906097,
                    "y": -0.0820249691605568
                },
                {
                    "x": -0.6212449073791504,
                    "y": 0.22789524495601654
                },
                {
                    "x": -1.1906687021255493,
                    "y": 0.9200401306152344
                },
                {
                    "x": -1.1434677839279175,
                    "y": 1.5803545713424683
                },
                {
                    "x": 0.684224009513855,
                    "y": -0.04603515937924385
                },
                {
                    "x": -0.022946851328015327,
                    "y": 0.07267961651086807
                },
                {
                    "x": -0.4352899193763733,
                    "y": 0.45279961824417114
                },
                {
                    "x": -0.9575838446617126,
                    "y": 0.8204993605613708
                },
                {
                    "x": -0.6334720253944397,
                    "y": 1.5206314325332642
                },
                {
                    "x": 0.42163047194480896,
                    "y": -0.05365128442645073
                },
                {
                    "x": 0.1292819380760193,
                    "y": 0.06572782248258591
                },
                {
                    "x": 0.09529692679643631,
                    "y": 0.4412353038787842
                },
                {
                    "x": 0.12704099714756012,
                    "y": 0.9854741096496582
                },
                {
                    "x": -0.12194600701332092,
                    "y": 1.700398564338684
                },
                {
                    "x": -0.2510626018047333,
                    "y": -0.06544344872236252
                },
                {
                    "x": -0.12771251797676086,
                    "y": 0.03424220159649849
                },
                {
                    "x": 0.22531969845294952,
                    "y": 0.33881956338882446
                },
                {
                    "x": 0.3530806303024292,
                    "y": 0.8776342868804932
                },
                {
                    "x": 0.431669682264328,
                    "y": 1.438625454902649
                },
                {
                    "x": -0.6890508532524109,
                    "y": -0.047729820013046265
                },
                {
                    "x": 0.5416834354400635,
                    "y": 0.09887376427650452
                },
                {
                    "x": 0.5657656192779541,
                    "y": 0.47413837909698486
                },
                {
                    "x": 0.8665820360183716,
                    "y": 0.9217873811721802
                },
                {
                    "x": 0.8166592121124268,
                    "y": 1.3073009252548218
                }
            ],
            "palette": [
                "0x8a97a4",
                "0x261e16",
                "0xdae0e7",
                "0x60523f",
                "0x7c7163",
                "0x433729"
            ],
            "palette_weight": [
                0.26104894280433655,
                0.11806627362966537,
                0.14165917038917542,
                0.15901491045951843,
                0.14091435074806213,
                0.1792963445186615
            ],
            "start_frame_num": 8466
        },
        {
            "duration": 419,
            "motion": [
                {
                    "x": 0.7117879986763,
                    "y": -0.03070584125816822
                },
                {
                    "x": 0.5360072255134583,
                    "y": -0.05287795513868332
                },
                {
                    "x": 0.42528897523880005,
                    "y": -0.06629976630210876
                },
                {
                    "x": 0.3765452206134796,
                    "y": -0.12417352199554443
                },
                {
                    "x": 0.3599761724472046,
                    "y": -0.2847880423069
                },
                {
                    "x": 0.6937698721885681,
                    "y": 0.038530729711055756
                },
                {
                    "x": 0.5444663166999817,
                    "y": -0.06327876448631287
                },
                {
                    "x": 0.40331026911735535,
                    "y": -0.05569671094417572
                },
                {
                    "x": 0.2660102844238281,
                    "y": -0.0716327354311943
                },
                {
                    "x": 0.22508791089057922,
                    "y": -0.21127715706825256
                },
                {
                    "x": 0.5864285230636597,
                    "y": 0.07594283670186996
                },
                {
                    "x": 0.719529926776886,
                    "y": 0.07140122354030609
                },
                {
                    "x": 0.5049214959144592,
                    "y": -0.011012506671249866
                },
                {
                    "x": 0.2877918779850006,
                    "y": -0.045042917132377625
                },
                {
                    "x": 0.05358835309743881,
                    "y": -0.13763700425624847
                },
                {
                    "x": 0.4947584867477417,
                    "y": 0.08902028203010559
                },
                {
                    "x": 0.4351550042629242,
                    "y": -0.0005561184952966869
                },
                {
                    "x": 0.29307472705841064,
                    "y": 0.018884755671024323
                },
                {
                    "x": 0.13727961480617523,
                    "y": -0.07540522515773773
                },
                {
                    "x": -0.1713210493326187,
                    "y": -0.16342949867248535
                },
                {
                    "x": 0.40628692507743835,
                    "y": 0.023495087400078773
                },
                {
                    "x": 0.050497326999902725,
                    "y": 0.03237561881542206
                },
                {
                    "x": -0.08501152694225311,
                    "y": -0.10133742541074753
                },
                {
                    "x": -0.4889875650405884,
                    "y": -0.22682487964630127
                },
                {
                    "x": -0.4767747223377228,
                    "y": -0.41028183698654175
                }
            ],
            "palette": [
                "0x3e352f",
                "0xb8b6b6",
                "0x6f7e80",
                "0x585c54",
                "0xced3dc",
                "0x8c9498"
            ],
            "palette_weight": [
                0.1618548482656479,
                0.09873328357934952,
                0.23874206840991974,
                0.23762217164039612,
                0.11990954726934433,
                0.1431380808353424
            ],
            "start_frame_num": 8702
        },
        {
            "duration": 278,
            "motion": [
                {
                    "x": -0.1602466106414795,
                    "y": 0.05447082966566086
                },
                {
                    "x": -0.15896552801132202,
                    "y": 0.08629129081964493
                },
                {
                    "x": -0.0871158242225647,
                    "y": 0.28236499428749084
                },
                {
                    "x": -0.28228670358657837,
                    "y": 0.6977346539497375
                },
                {
                    "x": -0.7752397060394287,
                    "y": 1.2302196025848389
                },
                {
                    "x": 0.13218721747398376,
                    "y": 0.03136247768998146
                },
                {
                    "x": 0.1651620864868164,
                    "y": 0.08077618479728699
                },
                {
                    "x": -0.10102209448814392,
                    "y": 0.29419538378715515
                },
                {
                    "x": -0.5097439885139465,
                    "y": 0.7410392761230469
                },
                {
                    "x": -0.43377500772476196,
                    "y": 1.5425677299499512
                },
                {
                    "x": 0.056505411863327026,
                    "y": 0.0296920295804739
                },
                {
                    "x": 0.23618367314338684,
                    "y": 0.06151672825217247
                },
                {
                    "x": 0.13368603587150574,
                    "y": 0.46752768754959106
                },
                {
                    "x": 0.03776049241423607,
                    "y": 0.900276243686676
                },
                {
                    "x": -0.07032375037670135,
                    "y": 1.5086480379104614
                },
                {
                    "x": -0.09583622217178345,
                    "y": 0.025120282545685768
                },
                {
                    "x": 0.028566569089889526,
                    "y": 0.09088775515556335
                },
                {
                    "x": 0.1258695274591446,
                    "y": 0.35613223910331726
                },
                {
                    "x": 0.3443574607372284,
                    "y": 0.917195200920105
                },
                {
                    "x": 0.3382381200790405,
                    "y": 1.3931165933609009
                },
                {
                    "x": -0.05377843230962753,
                    "y": 0.01050621923059225
                },
                {
                    "x": 0.1905255913734436,
                    "y": 0.12456431984901428
                },
                {
                    "x": 0.2705976963043213,
                    "y": 0.4049292206764221
                },
                {
                    "x": 0.6667353510856628,
                    "y": 0.9284588694572449
                },
                {
                    "x": 0.844376266002655,
                    "y": 1.4142612218856812
                }
            ],
            "palette": [
                "0x634b33",
                "0x88939c",
                "0xd3d7de",
                "0x6a7378",
                "0x4c5a63",
                "0x392618"
            ],
            "palette_weight": [
                0.11299725621938705,
                0.22042180597782135,
                0.1433095484972,
                0.2549886405467987,
                0.15200617909431458,
                0.1162765771150589
            ],
            "start_frame_num": 9121
        },
        {
            "duration": 391,
            "motion": [
                {
                    "x": 1.002846121788025,
                    "y": 0.1082482859492302
                },
                {
                    "x": 0.9398333430290222,
                    "y": 0.17990490794181824
                },
                {
                    "x": 0.7888299226760864,
                    "y": 0.08580159395933151
                },
                {
                    "x": 0.5611984133720398,
                    "y": 0.6398288011550903
                },
                {
                    "x": 0.2675597369670868,
                    "y": 0.8179192543029785
                },
                {
                    "x": 0.8019970655441284,
                    "y": 0.07320330291986465
                },
                {
                    "x": 0.8983009457588196,
                    "y": 0.13733473420143127
                },
                {
                    "x": 0.9805464744567871,
                    "y": 0.3563765585422516
                },
                {
                    "x": 0.4587670564651489,
                    "y": 0.7564235329627991
                },
                {
                    "x": 0.4345737397670746,
                    "y": 0.9319970607757568
                },
                {
                    "x": 1.3837097883224487,
                    "y": 0.03480856865644455
                },
                {
                    "x": 1.1736271381378174,
                    "y": 0.1456277072429657
                },
                {
                    "x": 1.0576046705245972,
                    "y": 0.4512805938720703
                },
                {
                    "x": 0.7619443535804749,
                    "y": 0.9620181322097778
                },
                {
                    "x": 0.7323344349861145,
                    "y": 1.1401960849761963
                },
                {
                    "x": 1.461411952972412,
                    "y": -0.03418516740202904
                },
                {
                    "x": 1.3044716119766235,
                    "y": 0.10606756806373596
                },
                {
                    "x": 1.3068751096725464,
                    "y": 0.4605898857116699
                },
                {
                    "x": 1.2997015714645386,
                    "y": 0.9580361843109131
                },
                {
                    "x": 1.2072246074676514,
                    "y": 1.3158538341522217
                },
                {
                    "x": 1.248522400856018,
                    "y": 0.009360232390463352
                },
                {
                    "x": 1.4063109159469604,
                    "y": -0.034693486988544464
                },
                {
                    "x": 1.5126590728759766,
                    "y": 0.3372410833835602
                },
                {
                    "x": 1.8450380563735962,
